{"learner":{"attributes":{},"feature_names":[],"feature_types":[],"gradient_booster":{"model":{"gbtree_model_param":{"num_parallel_tree":"1","num_trees":"100"},"iteration_indptr":[0,1,2,3,4,5,6,7,8,9,10,11,12,13,14,15,16,17,18,19,20,21,22,23,24,25,26,27,28,29,30,31,32,33,34,35,36,37,38,39,40,41,42,43,44,45,46,47,48,49,50,51,52,53,54,55,56,57,58,59,60,61,62,63,64,65,66,67,68,69,70,71,72,73,74,75,76,77,78,79,80,81,82,83,84,85,86,87,88,89,90,91,92,93,94,95,96,97,98,99,100],"tree_info":[0,0,0,0,0,0,0,0,0,0,0,0,0,0,0,0,0,0,0,0,0,0,0,0,0,0,0,0,0,0,0,0,0,0,0,0,0,0,0,0,0,0,0,0,0,0,0,0,0,0,0,0,0,0,0,0,0,0,0,0,0,0,0,0,0,0,0,0,0,0,0,0,0,0,0,0,0,0,0,0,0,0,0,0,0,0,0,0,0,0,0,0,0,0,0,0,0,0,0,0],"trees":[{"base_weights":[-6.111745E-3,-8.183819E0,5.783549E0,-1.5103447E1,-4.9615297E0,2.6984222E0,1.0419449E1,-1.8310274E1,-1.1070743E1,-5.1802003E-1,-3.2947762E0,-3.0742764E0,5.302794E0,5.4775395E0,1.3032252E1,-1.0561312E0,-7.173255E-1,-1.2497341E1,-5.862682E0,-3.7617016E0,3.337318E0,-3.3086967E0,8.812103E-1,4.9795256E0,5.582314E-1,5.6038637E0,1.2047068E-2,6.471353E0,1.4143248E1,-6.810171E-1,-4.2562714E-1,-3.102425E-1,-1.21286266E-1,-2.630639E-1,-1.5620199E-1,4.4564824E-3,2.2551873E-1,-1.8800823E-1,-9.97939E-2,-2.3947049E-2,1.01052955E-1,9.347822E-2,2.599602E-1,4.317255E-1,2.6454338E-1,1.3456178E-1,3.934782E-1,1.340353E-1,7.105662E-1],"categories":[],"categories_nodes":[],"categories_segments":[],"categories_sizes":[],"default_left":[0,0,0,0,0,0,0,0,0,0,0,0,0,0,0,0,0,0,0,0,0,0,0,0,0,0,0,0,0,0,0,0,0,0,0,0,0,0,0,0,0,0,0,0,0,0,0,0,0],"id":0,"left_children":[1,3,5,7,9,11,13,15,17,-1,19,21,23,25,27,-1,-1,29,31,33,35,37,39,41,-1,43,-1,45,47,-1,-1,-1,-1,-1,-1,-1,-1,-1,-1,-1,-1,-1,-1,-1,-1,-1,-1,-1,-1],"loss_changes":[4.763021E4,9.222928E3,8.395961E3,1.5043398E3,2.5394604E3,5.3534624E3,2.9629902E3,4.9958203E2,3.7995068E2,0E0,6.9382666E2,1.05839966E2,4.08667E2,5.355493E1,1.02371094E3,0E0,0E0,9.437842E1,2.5889893E0,1.8054565E2,5.6752625E1,5.472815E1,1.1820535E1,1.50146E2,0E0,3.1151123E1,0E0,1.0567084E2,6.3347656E1,0E0,0E0,0E0,0E0,0E0,0E0,0E0,0E0,0E0,0E0,0E0,0E0,0E0,0E0,0E0,0E0,0E0,0E0,0E0,0E0],"parents":[2147483647,0,0,1,1,2,2,3,3,4,4,5,5,6,6,7,7,8,8,10,10,11,11,12,12,13,13,14,14,17,17,18,18,19,19,20,20,21,21,22,22,23,23,25,25,27,27,28,28],"right_children":[2,4,6,8,10,12,14,16,18,-1,20,22,24,26,28,-1,-1,30,32,34,36,38,40,42,-1,44,-1,46,48,-1,-1,-1,-1,-1,-1,-1,-1,-1,-1,-1,-1,-1,-1,-1,-1,-1,-1,-1,-1],"split_conditions":[-1.75E0,-9.5E0,6.25E0,8.0583336E1,7.8916664E1,7.9833336E1,6.98E0,-1.2833333E1,8.48E1,-5.1802003E-1,8.6583336E1,7.8916664E1,8.8E1,3E1,6.49E0,-1.0561312E0,-7.173255E-1,-1.2666667E1,8.8E1,-6.8333335E0,-4.6666665E0,2E0,6.7E0,6.05E0,5.582314E-1,2.51E1,1.2047068E-2,5.9E0,-1.3333334E0,-6.810171E-1,-4.2562714E-1,-3.102425E-1,-1.21286266E-1,-2.630639E-1,-1.5620199E-1,4.4564824E-3,2.2551873E-1,-1.8800823E-1,-9.97939E-2,-2.3947049E-2,1.01052955E-1,9.347822E-2,2.599602E-1,4.317255E-1,2.6454338E-1,1.3456178E-1,3.934782E-1,1.340353E-1,7.105662E-1],"split_indices":[11,11,11,8,8,8,1,11,8,0,8,8,8,0,2,0,0,11,8,11,10,11,1,2,0,0,0,2,13,0,0,0,0,0,0,0,0,0,0,0,0,0,0,0,0,0,0,0,0],"split_type":[0,0,0,0,0,0,0,0,0,0,0,0,0,0,0,0,0,0,0,0,0,0,0,0,0,0,0,0,0,0,0,0,0,0,0,0,0,0,0,0,0,0,0,0,0,0,0,0,0],"sum_hessian":[1.004E3,4.16E2,5.88E2,1.31E2,2.85E2,3.54E2,2.34E2,7.1E1,6E1,6.6E1,2.19E2,1.1E2,2.44E2,8.2E1,1.52E2,3.9E1,3.2E1,4.6E1,1.4E1,2.05E2,1.4E1,1.04E2,6E0,2.33E2,1.1E1,8E1,2E0,2.3E1,1.29E2,3.4E1,1.2E1,1.2E1,2E0,5.9E1,1.46E2,4E0,1E1,7.6E1,2.8E1,3E0,3E0,1.6E1,2.17E2,5E0,7.5E1,7E0,1.6E1,1E0,1.28E2],"tree_param":{"num_deleted":"0","num_feature":"14","num_nodes":"49","size_leaf_vector":"1"}},{"base_weights":[-1.6847077E-1,-8.338285E0,5.4634213E0,-1.4263625E1,-4.9310575E0,1.6396834E0,8.973318E0,-9.5113546E-1,-1.1816226E1,-9.835155E0,-3.0826445E0,-2.472652E0,5.128815E0,5.2416506E0,1.188807E1,-8.714886E-1,-1.0290335E1,-5.0896734E-1,-3.1091413E-1,-3.4652648E0,2.2209287E0,-3.3822267E0,6.1758494E-1,9.719729E-2,5.239559E0,-1.1795985E-1,5.3661957E0,6.305315E0,6.74471E-1,-5.695576E-1,-2.9334542E-1,-2.3115246E-1,-1.24370456E-1,-6.1304364E-3,1.996954E-1,-2.848564E-1,-1.5931807E-1,-2.5540281E-2,1.05242945E-1,2.4734461E-1,4.0279242E-1,4.4769475E-1,2.5268736E-1,1.4484476E-1,3.78606E-1],"categories":[],"categories_nodes":[],"categories_segments":[],"categories_sizes":[],"default_left":[0,0,0,0,0,0,0,0,0,0,0,0,0,0,0,0,0,0,0,0,0,0,0,0,0,0,0,0,0,0,0,0,0,0,0,0,0,0,0,0,0,0,0,0,0],"id":1,"left_children":[1,3,5,7,9,11,13,-1,15,17,19,21,23,25,27,-1,29,-1,-1,31,33,35,37,-1,39,-1,41,43,-1,-1,-1,-1,-1,-1,-1,-1,-1,-1,-1,-1,-1,-1,-1,-1,-1],"loss_changes":[4.8035566E4,8.53017E3,8.27942E3,1.5805664E3,2.4353066E3,4.27418E3,3.440043E3,0E0,7.2003613E2,2.8824707E1,4.1151794E2,3.871687E2,4.6600586E1,1.48031E2,1.5241348E3,0E0,3.4706738E2,0E0,0E0,1.9907983E2,5.8660294E1,2.9908203E1,5.47784E1,0E0,8.79043E1,0E0,1.128064E2,1.5941199E2,0E0,0E0,0E0,0E0,0E0,0E0,0E0,0E0,0E0,0E0,0E0,0E0,0E0,0E0,0E0,0E0,0E0],"parents":[2147483647,0,0,1,1,2,2,3,3,4,4,5,5,6,6,8,8,9,9,10,10,11,11,12,12,13,13,14,14,16,16,19,19,20,20,21,21,22,22,24,24,26,26,27,27],"right_children":[2,4,6,8,10,12,14,-1,16,18,20,22,24,26,28,-1,30,-1,-1,32,34,36,38,-1,40,-1,42,44,-1,-1,-1,-1,-1,-1,-1,-1,-1,-1,-1,-1,-1,-1,-1,-1,-1],"split_conditions":[-1.75E0,-9.25E0,4.5E0,7.7666664E1,7.8916664E1,8.1583336E1,7.01E0,-9.5113546E-1,-1.5833333E1,7.8666664E1,8.65E1,7.8916664E1,5.7E0,5.92E0,6.49E0,-8.714886E-1,8.3916664E1,-5.0896734E-1,-3.1091413E-1,-5.4166665E0,-4.6666665E0,7.2833336E1,7.01E0,9.719729E-2,7.01E0,-1.1795985E-1,2.51E1,5.951E0,6.74471E-1,-5.695576E-1,-2.9334542E-1,-2.3115246E-1,-1.24370456E-1,-6.1304364E-3,1.996954E-1,-2.848564E-1,-1.5931807E-1,-2.5540281E-2,1.05242945E-1,2.4734461E-1,4.0279242E-1,4.4769475E-1,2.5268736E-1,1.4484476E-1,3.78606E-1],"split_indices":[11,11,11,8,8,8,1,0,11,7,8,8,2,1,2,0,8,0,0,11,10,8,1,0,1,0,0,2,0,0,0,0,0,0,0,0,0,0,0,0,0,0,0,0,0],"split_type":[0,0,0,0,0,0,0,0,0,0,0,0,0,0,0,0,0,0,0,0,0,0,0,0,0,0,0,0,0,0,0,0,0,0,0,0,0,0,0,0,0,0,0,0,0],"sum_hessian":[1.042E3,4.25E2,6.17E2,1.54E2,2.71E2,2.96E2,3.21E2,5E1,1.04E2,7.3E1,1.98E2,1.36E2,1.6E2,1.42E2,1.79E2,2E1,8.4E1,6.5E1,8E0,1.85E2,1.3E1,1.05E2,3.1E1,6E0,1.54E2,2E0,1.4E2,4.1E1,1.38E2,6.6E1,1.8E1,8.3E1,1.02E2,6E0,7E0,6E0,9.9E1,1.8E1,1.3E1,1.42E2,1.2E1,9E0,1.31E2,1.2E1,2.9E1],"tree_param":{"num_deleted":"0","num_feature":"14","num_nodes":"45","size_leaf_vector":"1"}},{"base_weights":[-1.8110043E-1,-7.238494E0,5.523634E0,-1.35766325E1,-4.1765523E0,2.7195003E0,9.255282E0,-9.119304E-1,-1.1508434E1,-9.440349E0,-2.9613378E0,-3.0364804E0,4.8078723E0,5.1486416E0,1.1521587E1,-8.384425E-1,-9.967759E0,-4.781383E-1,-1.9838105E-1,-3.505009E0,3.3671756E0,-3.4316022E0,-1.7534524E0,4.5609627E0,5.7607895E-1,4.2668977E-1,4.6671576E0,6.06819E0,1.2742779E1,-5.4071164E-1,-2.7942753E-1,-2.5845665E-1,-1.4201309E-1,-1.5378952E-3,2.215476E-1,-1.7464991E-1,1.5513039E-2,-1.4923707E-1,7.2848513E-3,9.4958894E-2,2.3855339E-1,2.391433E-1,3.2226562E-3,1.4369038E-1,3.6221778E-1,2.6159316E-1,6.4400434E-1],"categories":[],"categories_nodes":[],"categories_segments":[],"categories_sizes":[],"default_left":[0,0,0,0,0,0,0,0,0,0,0,0,0,0,0,0,0,0,0,0,0,0,0,0,0,0,0,0,0,0,0,0,0,0,0,0,0,0,0,0,0,0,0,0,0,0,0],"id":2,"left_children":[1,3,5,7,9,11,13,-1,15,17,19,21,23,25,27,-1,29,-1,-1,31,33,35,37,39,-1,-1,41,43,45,-1,-1,-1,-1,-1,-1,-1,-1,-1,-1,-1,-1,-1,-1,-1,-1,-1,-1],"loss_changes":[4.2152527E4,9.025779E3,6.0335117E3,1.255668E3,1.9997783E3,4.005448E3,2.248789E3,0E0,7.0814746E2,1.5869141E0,9.029253E2,3.9101624E1,3.5192334E2,1.0686206E2,9.815586E2,0E0,2.5835547E2,0E0,0E0,2.4970532E2,7.604378E1,1.6475952E1,5.4218094E1,1.2348193E2,0E0,0E0,4.2829956E1,9.565173E1,6.56543E1,0E0,0E0,0E0,0E0,0E0,0E0,0E0,0E0,0E0,0E0,0E0,0E0,0E0,0E0,0E0,0E0,0E0,0E0],"parents":[2147483647,0,0,1,1,2,2,3,3,4,4,5,5,6,6,8,8,9,9,10,10,11,11,12,12,13,13,14,14,16,16,19,19,20,20,21,21,22,22,23,23,26,26,27,27,28,28],"right_children":[2,4,6,8,10,12,14,-1,16,18,20,22,24,26,28,-1,30,-1,-1,32,34,36,38,40,-1,-1,42,44,46,-1,-1,-1,-1,-1,-1,-1,-1,-1,-1,-1,-1,-1,-1,-1,-1,-1,-1],"split_conditions":[-1E0,-9.25E0,6.25E0,7.7333336E1,7.8083336E1,7.8916664E1,6.98E0,-9.119304E-1,-1.5833333E1,-8.333333E-1,8.65E1,7.725E1,8.8833336E1,2.51E1,6.49E0,-8.384425E-1,8.3916664E1,-4.781383E-1,-1.9838105E-1,-6.75E0,-6.25E0,3.065E1,-8.3333336E-2,6.05E0,5.7607895E-1,4.2668977E-1,3E1,5.9E0,-6.666667E-1,-5.4071164E-1,-2.7942753E-1,-2.5845665E-1,-1.4201309E-1,-1.5378952E-3,2.215476E-1,-1.7464991E-1,1.5513039E-2,-1.4923707E-1,7.2848513E-3,9.4958894E-2,2.3855339E-1,2.391433E-1,3.2226562E-3,1.4369038E-1,3.6221778E-1,2.6159316E-1,6.4400434E-1],"split_indices":[11,11,11,8,8,8,1,0,11,10,8,8,8,0,2,0,8,0,0,11,11,0,11,2,0,0,0,2,13,0,0,0,0,0,0,0,0,0,0,0,0,0,0,0,0,0,0],"split_type":[0,0,0,0,0,0,0,0,0,0,0,0,0,0,0,0,0,0,0,0,0,0,0,0,0,0,0,0,0,0,0,0,0,0,0,0,0,0,0,0,0,0,0,0,0,0,0],"sum_hessian":[1.045E3,4.67E2,5.78E2,1.51E2,3.16E2,3.31E2,2.47E2,4.4E1,1.07E2,5.8E1,2.58E2,8.8E1,2.43E2,8.9E1,1.58E2,2.2E1,8.5E1,5.6E1,2E0,2.38E2,2E1,6.6E1,2.2E1,2.36E2,7E0,9E0,8E1,3E1,1.28E2,7E1,1.5E1,6.6E1,1.72E2,5E0,1.5E1,6.5E1,1E0,1.3E1,9E0,1.8E1,2.18E2,7.8E1,2E0,9E0,2.1E1,3E0,1.25E2],"tree_param":{"num_deleted":"0","num_feature":"14","num_nodes":"47","size_leaf_vector":"1"}},{"base_weights":[5.8713898E-2,-7.065475E0,5.118678E0,-1.3188099E1,-4.5045667E0,2.607528E0,9.248437E0,-1.5923413E1,-9.597571E0,-9.102164E0,-2.9857655E0,-2.7615802E0,4.555804E0,4.728229E0,1.1180299E1,-8.8690245E-1,-5.973775E-1,-5.84601E-1,-7.3228335E0,-3.8010377E-1,-9.882609E0,-4.6905675E0,-1.9350463E0,7.4738614E-2,-2.9525099E0,4.3252573E0,5.139434E-1,4.864546E0,3.1153362E-3,5.645608E0,1.2122424E1,-4.2844492E-1,-2.5171092E-1,-4.9940735E-1,-1.2833653E-1,-3.551745E-1,-1.5787654E-1,-1.4417134E-1,3.9315805E-2,-1.6355744E-1,-4.9627103E-2,8.750392E-2,2.274222E-1,3.773044E-1,2.265973E-1,1.4170295E-1,3.4009904E-1,2.5178328E-1,6.1226696E-1],"categories":[],"categories_nodes":[],"categories_segments":[],"categories_sizes":[],"default_left":[0,0,0,0,0,0,0,0,0,0,0,0,0,0,0,0,0,0,0,0,0,0,0,0,0,0,0,0,0,0,0,0,0,0,0,0,0,0,0,0,0,0,0,0,0,0,0,0,0],"id":3,"left_children":[1,3,5,7,9,11,13,15,17,19,21,23,25,27,29,-1,-1,-1,31,-1,33,35,37,-1,39,41,-1,43,-1,45,47,-1,-1,-1,-1,-1,-1,-1,-1,-1,-1,-1,-1,-1,-1,-1,-1,-1,-1],"loss_changes":[3.7237848E4,6.667088E3,6.239632E3,1.0846504E3,2.095606E3,3.956191E3,1.938127E3,2.9310547E2,1.8594727E2,1.2676758E1,4.0291504E2,8.649249E1,3.2102393E2,4.421997E1,7.606465E2,0E0,0E0,0E0,4.2415283E1,0E0,9.879883E0,2.993921E2,3.739151E2,0E0,5.733185E1,1.4607178E2,0E0,2.6449463E1,0E0,6.2002747E1,5.5929688E1,0E0,0E0,0E0,0E0,0E0,0E0,0E0,0E0,0E0,0E0,0E0,0E0,0E0,0E0,0E0,0E0,0E0,0E0],"parents":[2147483647,0,0,1,1,2,2,3,3,4,4,5,5,6,6,7,7,8,8,9,9,10,10,11,11,12,12,13,13,14,14,18,18,20,20,21,21,22,22,24,24,25,25,27,27,29,29,30,30],"right_children":[2,4,6,8,10,12,14,16,18,20,22,24,26,28,30,-1,-1,-1,32,-1,34,36,38,-1,40,42,-1,44,-1,46,48,-1,-1,-1,-1,-1,-1,-1,-1,-1,-1,-1,-1,-1,-1,-1,-1,-1,-1],"split_conditions":[-1.75E0,-1.0083333E1,6.8333335E0,8.0583336E1,7.8916664E1,7.8833336E1,6.98E0,-1.25E1,-1.35E1,1.064E3,8.1666664E1,2.54E1,8.85E1,3E1,6.49E0,-8.8690245E-1,-5.973775E-1,-5.84601E-1,8.48E1,-3.8010377E-1,-2E0,-4.75E0,-4.5E0,7.4738614E-2,6.64E0,6.05E0,5.139434E-1,2.51E1,3.1153362E-3,5.9E0,-6.666667E-1,-4.2844492E-1,-2.5171092E-1,-4.9940735E-1,-1.2833653E-1,-3.551745E-1,-1.5787654E-1,-1.4417134E-1,3.9315805E-2,-1.6355744E-1,-4.9627103E-2,8.750392E-2,2.274222E-1,3.773044E-1,2.265973E-1,1.4170295E-1,3.4009904E-1,2.5178328E-1,6.1226696E-1],"split_indices":[11,11,11,8,8,8,1,11,11,5,8,0,8,0,2,0,0,0,8,0,11,11,11,0,1,2,0,0,0,2,13,0,0,0,0,0,0,0,0,0,0,0,0,0,0,0,0,0,0],"split_type":[0,0,0,0,0,0,0,0,0,0,0,0,0,0,0,0,0,0,0,0,0,0,0,0,0,0,0,0,0,0,0,0,0,0,0,0,0,0,0,0,0,0,0,0,0,0,0,0,0],"sum_hessian":[1.031E3,4.28E2,6.03E2,1.25E2,3.03E2,3.76E2,2.27E2,6.9E1,5.6E1,7.4E1,2.29E2,1E2,2.76E2,6.9E1,1.58E2,4.5E1,2.4E1,2.7E1,2.9E1,2.9E1,4.5E1,8.6E1,1.43E2,4E0,9.6E1,2.67E2,9E0,6.7E1,2E0,2.4E1,1.34E2,1.7E1,1.2E1,4.4E1,1E0,3.2E1,5.4E1,1.06E2,3.7E1,8.2E1,1.4E1,2.2E1,2.45E2,5E0,6.2E1,8E0,1.6E1,3E0,1.31E2],"tree_param":{"num_deleted":"0","num_feature":"14","num_nodes":"49","size_leaf_vector":"1"}},{"base_weights":[-1.3991062E-1,-5.9001036E0,5.6090193E0,-1.2794502E1,-3.4042976E0,3.2069652E0,9.275077E0,-8.63709E-1,-1.0934685E1,-5.2514877E0,-5.39969E-1,-2.7679725E0,4.2327E0,4.5766306E0,1.1398981E1,-7.405032E-1,-9.036236E0,-8.209078E0,-3.9010024E0,-2.6949887E0,2.229587E0,6.4220685E-1,-1.4707603E-1,-3.056194E-1,4.473772E0,1.5252137E0,6.6796474E0,1.4627075E-1,1.1504408E1,-4.8650345E-1,-2.857289E-1,-4.760986E-1,-3.3705464E-1,-3.8416532E-1,-1.4467321E-1,-1.4770047E-1,3.510189E-3,6.95706E-3,2.1578424E-1,3.846245E-2,9.703064E-3,-9.035492E-3,-3.516922E-2,3.9530712E-1,2.1550348E-1,-1.1611443E-1,1.05145685E-1,3.3990443E-1,6.0394287E-2,1.11532785E-1,5.778882E-1],"categories":[],"categories_nodes":[],"categories_segments":[],"categories_sizes":[],"default_left":[0,0,0,0,0,0,0,0,0,0,0,0,0,0,0,0,0,0,0,0,0,0,0,0,0,0,0,0,0,0,0,0,0,0,0,0,0,0,0,0,0,0,0,0,0,0,0,0,0,0,0],"id":4,"left_children":[1,3,5,7,9,11,13,-1,15,17,19,21,23,25,27,-1,29,31,33,35,37,39,-1,41,43,45,47,-1,49,-1,-1,-1,-1,-1,-1,-1,-1,-1,-1,-1,-1,-1,-1,-1,-1,-1,-1,-1,-1,-1,-1],"loss_changes":[3.3015582E4,8.525568E3,4.3644844E3,9.108574E2,1.9389468E3,1.8687126E3,1.9137051E3,0E0,5.7246387E2,8.586792E2,8.7143365E2,2.8521423E1,2.84729E2,3.9409448E2,8.694336E1,0E0,9.881006E1,6.87959E1,5.684448E2,5.893921E1,2.784955E2,2.1518588E-2,0E0,5.6847644E-1,1.0414844E2,6.4896515E1,1.57677E1,0E0,4.0029297E1,0E0,0E0,0E0,0E0,0E0,0E0,0E0,0E0,0E0,0E0,0E0,0E0,0E0,0E0,0E0,0E0,0E0,0E0,0E0,0E0,0E0,0E0],"parents":[2147483647,0,0,1,1,2,2,3,3,4,4,5,5,6,6,8,8,9,9,10,10,11,11,12,12,13,13,14,14,16,16,17,17,18,18,19,19,20,20,21,21,23,23,24,24,25,25,26,26,28,28],"right_children":[2,4,6,8,10,12,14,-1,16,18,20,22,24,26,28,-1,30,32,34,36,38,40,-1,42,44,46,48,-1,50,-1,-1,-1,-1,-1,-1,-1,-1,-1,-1,-1,-1,-1,-1,-1,-1,-1,-1,-1,-1,-1,-1],"split_conditions":[2.5E-1,-1.0083333E1,6.99E0,-1.5833333E1,8.225E1,6.01E0,6.49E0,-8.63709E-1,7.8083336E1,-5.1666665E0,-5.1666665E0,2.4E1,6.5E0,5.99E0,2.6666667E0,-7.405032E-1,8.3916664E1,7.8083336E1,7.6833336E1,8.7166664E1,8.525E1,2.36E1,-1.4707603E-1,8.1166664E1,2.51E1,5.34E0,2.984E1,1.4627075E-1,-1.3333334E0,-4.8650345E-1,-2.857289E-1,-4.760986E-1,-3.3705464E-1,-3.8416532E-1,-1.4467321E-1,-1.4770047E-1,3.510189E-3,6.95706E-3,2.1578424E-1,3.846245E-2,9.703064E-3,-9.035492E-3,-3.516922E-2,3.9530712E-1,2.1550348E-1,-1.1611443E-1,1.05145685E-1,3.3990443E-1,6.0394287E-2,1.11532785E-1,5.778882E-1],"split_indices":[11,11,1,11,8,1,2,0,8,11,11,0,2,2,11,0,8,8,8,8,8,0,0,7,0,2,0,0,13,0,0,0,0,0,0,0,0,0,0,0,0,0,0,0,0,0,0,0,0,0,0],"split_type":[0,0,0,0,0,0,0,0,0,0,0,0,0,0,0,0,0,0,0,0,0,0,0,0,0,0,0,0,0,0,0,0,0,0,0,0,0,0,0,0,0,0,0,0,0,0,0,0,0,0,0],"sum_hessian":[9.95E2,4.97E2,4.98E2,1.31E2,3.66E2,3.02E2,1.96E2,3.6E1,9.5E1,2.22E2,1.44E2,4.4E1,2.58E2,6.2E1,1.34E2,2.9E1,6.6E1,6.8E1,1.54E2,8.1E1,6.3E1,2E0,4.2E1,1.3E1,2.45E2,2.6E1,3.6E1,2E0,1.32E2,5.3E1,1.3E1,3.3E1,3.5E1,3.1E1,1.23E2,7.4E1,7E0,3.2E1,3.1E1,1E0,1E0,1.1E1,2E0,9E0,2.36E2,3E0,2.3E1,3.5E1,1E0,1E0,1.31E2],"tree_param":{"num_deleted":"0","num_feature":"14","num_nodes":"51","size_leaf_vector":"1"}},{"base_weights":[-1.197691E-1,-6.6142364E0,4.5116415E0,-1.14496565E1,-3.8471823E0,2.0656576E0,8.202585E0,-1.4349381E1,-8.2882595E0,-8.205759E0,-2.4862595E0,-2.43671E0,3.924912E0,4.4180264E0,1.0067252E1,-1.0157107E0,-6.499013E-1,-9.297592E0,-4.1789913E0,-4.1308862E-1,-1.15524106E-1,-2.9565794E0,2.4220564E0,-2.94879E0,-1.5052555E0,3.7316346E0,4.1725126E-1,3.7061763E-1,3.988342E0,5.5125785E0,1.0950438E1,-5.313064E-1,-3.2297286E-1,-2.4472396E-1,-1.02575876E-1,-1.8185358E-1,-9.4209366E-2,3.3566474E-3,1.8950838E-1,-1.4996782E-1,1.0978508E-2,-1.3687871E-1,2.5716042E-2,8.483243E-2,2.0013264E-1,2.0521076E-1,-4.171753E-3,1.12702504E-1,3.061476E-1,2.2649994E-1,5.531878E-1],"categories":[],"categories_nodes":[],"categories_segments":[],"categories_sizes":[],"default_left":[0,0,0,0,0,0,0,0,0,0,0,0,0,0,0,0,0,0,0,0,0,0,0,0,0,0,0,0,0,0,0,0,0,0,0,0,0,0,0,0,0,0,0,0,0,0,0,0,0,0,0],"id":5,"left_children":[1,3,5,7,9,11,13,15,17,19,21,23,25,27,29,-1,-1,31,33,-1,-1,35,37,39,41,43,-1,-1,45,47,49,-1,-1,-1,-1,-1,-1,-1,-1,-1,-1,-1,-1,-1,-1,-1,-1,-1,-1,-1,-1],"loss_changes":[3.10709E4,5.709295E3,5.4269346E3,1.3111504E3,1.610812E3,3.0566245E3,1.6491885E3,3.808047E2,2.8051172E2,2.375E0,4.9425E2,4.6598083E1,1.8927075E2,7.465283E1,5.832539E2,0E0,0E0,1.6136523E2,1.5835999E1,0E0,0E0,1.3398975E2,6.095971E1,1.155304E1,1.0095847E2,1.3053687E2,0E0,0E0,3.4784424E1,4.1888306E1,4.6646484E1,0E0,0E0,0E0,0E0,0E0,0E0,0E0,0E0,0E0,0E0,0E0,0E0,0E0,0E0,0E0,0E0,0E0,0E0,0E0,0E0],"parents":[2147483647,0,0,1,1,2,2,3,3,4,4,5,5,6,6,7,7,8,8,9,9,10,10,11,11,12,12,13,13,14,14,17,17,18,18,21,21,22,22,23,23,24,24,25,25,28,28,29,29,30,30],"right_children":[2,4,6,8,10,12,14,16,18,20,22,24,26,28,30,-1,-1,32,34,-1,-1,36,38,40,42,44,-1,-1,46,48,50,-1,-1,-1,-1,-1,-1,-1,-1,-1,-1,-1,-1,-1,-1,-1,-1,-1,-1,-1,-1],"split_conditions":[-1.75E0,-9.25E0,6.25E0,8.0083336E1,7.8916664E1,7.8833336E1,6.98E0,-1.85E1,8.5666664E1,-2E0,8.65E1,7.7083336E1,8.8E1,2.51E1,6.49E0,-1.0157107E0,-6.499013E-1,-1.2E1,-1.1583333E1,-4.1308862E-1,-1.15524106E-1,-4.5E0,-6.25E0,3.065E1,-8.3333336E-2,6.31E0,4.1725126E-1,3.7061763E-1,2.984E1,5.88E0,-6.666667E-1,-5.313064E-1,-3.2297286E-1,-2.4472396E-1,-1.02575876E-1,-1.8185358E-1,-9.4209366E-2,3.3566474E-3,1.8950838E-1,-1.4996782E-1,1.0978508E-2,-1.3687871E-1,2.5716042E-2,8.483243E-2,2.0013264E-1,2.0521076E-1,-4.171753E-3,1.12702504E-1,3.061476E-1,2.2649994E-1,5.531878E-1],"split_indices":[11,11,11,8,8,8,1,11,8,11,8,8,8,0,2,0,0,11,11,0,0,11,11,0,11,2,0,0,0,2,13,0,0,0,0,0,0,0,0,0,0,0,0,0,0,0,0,0,0,0,0],"split_type":[0,0,0,0,0,0,0,0,0,0,0,0,0,0,0,0,0,0,0,0,0,0,0,0,0,0,0,0,0,0,0,0,0,0,0,0,0,0,0,0,0,0,0,0,0,0,0,0,0,0,0],"sum_hessian":[1.031E3,4.29E2,6.02E2,1.55E2,2.74E2,3.63E2,2.39E2,7.9E1,7.6E1,6.4E1,2.1E2,1.06E2,2.57E2,8E1,1.59E2,1.2E1,6.7E1,6E1,1.6E1,6.3E1,1E0,1.92E2,1.8E1,6.7E1,3.9E1,2.48E2,9E0,8E0,7.2E1,2.7E1,1.32E2,3.9E1,2.1E1,1.1E1,5E0,1.16E2,7.6E1,7E0,1.1E1,6.6E1,1E0,2.4E1,1.5E1,3E1,2.18E2,7E1,2E0,5E0,2.2E1,3E0,1.29E2],"tree_param":{"num_deleted":"0","num_feature":"14","num_nodes":"51","size_leaf_vector":"1"}},{"base_weights":[-5.9424847E-2,-6.186666E0,4.2773547E0,-1.1261427E1,-3.6543584E0,1.8193668E0,7.925709E0,-1.5077609E1,-8.734272E0,-7.6869226E0,-2.429607E0,-2.3884778E0,3.8455777E0,4.3360863E0,9.487566E0,-1.7978067E1,-1.2687074E1,-9.969169E0,-4.4372506E0,-3.0876148E-1,-8.367725E0,-2.8616529E0,2.8216186E0,-2.9732466E0,-1.2873793E0,3.620874E0,3.906604E-1,3.582914E-1,3.834032E0,5.1749187E0,1.0407599E1,-3.817805E-1,-9.3152666E-1,-6.9066304E-1,-3.7205416E-1,-6.281264E-1,-4.326751E-1,-2.3916355E-1,-8.8542365E-2,-4.233782E-1,-1.0685863E-1,-1.960894E-1,-1.00910045E-1,1.0077515E-2,1.8061447E-1,-2.1424785E-1,-1.3145493E-1,-1.18664324E-1,4.1273627E-2,9.351205E-2,1.9635348E-1,1.9479147E-1,-3.0244829E-3,9.953051E-2,3.010367E-1,2.1800613E-1,5.2560055E-1],"categories":[],"categories_nodes":[],"categories_segments":[],"categories_sizes":[],"default_left":[0,0,0,0,0,0,0,0,0,0,0,0,0,0,0,0,0,0,0,0,0,0,0,0,0,0,0,0,0,0,0,0,0,0,0,0,0,0,0,0,0,0,0,0,0,0,0,0,0,0,0,0,0,0,0,0,0],"id":6,"left_children":[1,3,5,7,9,11,13,15,17,19,21,23,25,27,29,31,33,35,37,-1,39,41,43,45,47,49,-1,-1,51,53,55,-1,-1,-1,-1,-1,-1,-1,-1,-1,-1,-1,-1,-1,-1,-1,-1,-1,-1,-1,-1,-1,-1,-1,-1,-1,-1],"loss_changes":[2.686468E4,5.3433555E3,5.2944062E3,1.208834E3,1.3691511E3,3.0359077E3,1.2932021E3,1.463291E2,4.121128E2,1.5223145E1,5.003977E2,7.086334E1,1.8567944E2,7.7656494E1,6.008242E2,6.2026367E0,9.217676E1,1.1648193E2,1.0904785E1,0E0,8.029297E0,1.7181396E2,3.4489334E1,2.2591125E1,9.8322235E1,1.15407715E2,0E0,0E0,1.5879272E1,7.150842E1,3.940918E1,0E0,0E0,0E0,0E0,0E0,0E0,0E0,0E0,0E0,0E0,0E0,0E0,0E0,0E0,0E0,0E0,0E0,0E0,0E0,0E0,0E0,0E0,0E0,0E0,0E0,0E0],"parents":[2147483647,0,0,1,1,2,2,3,3,4,4,5,5,6,6,7,7,8,8,9,9,10,10,11,11,12,12,13,13,14,14,15,15,16,16,17,17,18,18,20,20,21,21,22,22,23,23,24,24,25,25,28,28,29,29,30,30],"right_children":[2,4,6,8,10,12,14,16,18,20,22,24,26,28,30,32,34,36,38,-1,40,42,44,46,48,50,-1,-1,52,54,56,-1,-1,-1,-1,-1,-1,-1,-1,-1,-1,-1,-1,-1,-1,-1,-1,-1,-1,-1,-1,-1,-1,-1,-1,-1,-1],"split_conditions":[-1.5833334E0,-9.25E0,6.25E0,-1.4E1,7.8666664E1,7.9833336E1,6.98E0,-1.85E1,8.2083336E1,1.047E3,8.65E1,7.7083336E1,8.7666664E1,2.51E1,6.49E0,2.54E1,8.1083336E1,7.6916664E1,-1E1,-3.0876148E-1,7.9E1,8.1583336E1,-4.6666665E0,2.5E-1,1.0833334E0,6.53E0,3.906604E-1,3.582914E-1,2.984E1,5.9E0,-6.666667E-1,-3.817805E-1,-9.3152666E-1,-6.9066304E-1,-3.7205416E-1,-6.281264E-1,-4.326751E-1,-2.3916355E-1,-8.8542365E-2,-4.233782E-1,-1.0685863E-1,-1.960894E-1,-1.00910045E-1,1.0077515E-2,1.8061447E-1,-2.1424785E-1,-1.3145493E-1,-1.18664324E-1,4.1273627E-2,9.351205E-2,1.9635348E-1,1.9479147E-1,-3.0244829E-3,9.953051E-2,3.010367E-1,2.1800613E-1,5.2560055E-1],"split_indices":[11,11,11,11,8,8,1,11,8,5,8,8,8,0,2,0,8,8,11,0,7,8,10,11,11,2,0,0,0,2,13,0,0,0,0,0,0,0,0,0,0,0,0,0,0,0,0,0,0,0,0,0,0,0,0,0,0],"split_type":[0,0,0,0,0,0,0,0,0,0,0,0,0,0,0,0,0,0,0,0,0,0,0,0,0,0,0,0,0,0,0,0,0,0,0,0,0,0,0,0,0,0,0,0,0,0,0,0,0,0,0,0,0,0,0,0,0],"sum_hessian":[1.009E3,4.18E2,5.91E2,1.38E2,2.8E2,3.54E2,2.37E2,5.3E1,8.5E1,6.4E1,2.16E2,1.15E2,2.39E2,7.3E1,1.64E2,2.1E1,3.2E1,6.5E1,2E1,2.3E1,4.1E1,2E2,1.6E1,7.4E1,4.1E1,2.28E2,1.1E1,9E0,6.4E1,3E1,1.34E2,2E0,1.9E1,2.5E1,7E0,1.9E1,4.6E1,1.7E1,3E0,4E1,1E0,8.7E1,1.13E2,4E0,1.2E1,1.3E1,6.1E1,2.7E1,1.4E1,3.5E1,1.93E2,6.3E1,1E0,7E0,2.3E1,3E0,1.31E2],"tree_param":{"num_deleted":"0","num_feature":"14","num_nodes":"57","size_leaf_vector":"1"}},{"base_weights":[1.0159434E-1,-5.936953E0,4.283495E0,-1.0585447E1,-3.359232E0,2.032287E0,7.493928E0,-1.3597827E1,-8.220589E0,-7.251048E0,-2.2887433E0,-1.9920613E0,3.8090851E0,4.0193434E0,8.997102E0,-8.352896E-1,-1.1805438E1,-9.59569E0,-4.6782155E0,-4.4331002E-1,-6.3025746E0,-2.6202762E0,2.2842789E0,-1.2672812E-1,-7.571424E-1,3.5609899E0,4.4153425E-1,3.332881E-1,3.6594765E0,4.6880255E0,9.904801E0,-6.015177E-1,-2.3607408E-1,-5.889418E-1,-4.203944E-1,-2.722151E-1,-1.5693082E-1,-3.2583123E-1,-1.3734856E-1,-2.0432447E-1,-1.0587112E-1,-4.505857E-3,1.7402443E-1,-1.0297638E-1,4.5908023E-2,6.68173E-2,1.8576525E-1,1.857111E-1,-2.9489517E-3,1.2725942E-1,2.8446323E-1,2.0983087E-1,4.9989042E-1],"categories":[],"categories_nodes":[],"categories_segments":[],"categories_sizes":[],"default_left":[0,0,0,0,0,0,0,0,0,0,0,0,0,0,0,0,0,0,0,0,0,0,0,0,0,0,0,0,0,0,0,0,0,0,0,0,0,0,0,0,0,0,0,0,0,0,0,0,0,0,0,0,0],"id":7,"left_children":[1,3,5,7,9,11,13,15,17,19,21,23,25,27,29,-1,31,33,35,-1,37,39,41,-1,43,45,-1,-1,47,49,51,-1,-1,-1,-1,-1,-1,-1,-1,-1,-1,-1,-1,-1,-1,-1,-1,-1,-1,-1,-1,-1,-1],"loss_changes":[2.5858848E4,4.985118E3,4.3573184E3,9.496719E2,1.1124297E3,2.5603005E3,1.2643408E3,1.5930371E2,3.740254E2,3.2971924E1,3.304325E2,7.177493E1,2.77521E2,4.8938354E1,6.302295E2,0E0,1.3304199E1,5.9146973E1,1.3578491E1,0E0,1.2541992E1,1.3880542E2,4.29178E1,0E0,7.825711E1,7.67395E1,0E0,0E0,1.4468811E1,5.4175476E1,3.3429688E1,0E0,0E0,0E0,0E0,0E0,0E0,0E0,0E0,0E0,0E0,0E0,0E0,0E0,0E0,0E0,0E0,0E0,0E0,0E0,0E0,0E0,0E0],"parents":[2147483647,0,0,1,1,2,2,3,3,4,4,5,5,6,6,7,7,8,8,9,9,10,10,11,11,12,12,13,13,14,14,16,16,17,17,18,18,20,20,21,21,22,22,24,24,25,25,28,28,29,29,30,30],"right_children":[2,4,6,8,10,12,14,16,18,20,22,24,26,28,30,-1,32,34,36,-1,38,40,42,-1,44,46,-1,-1,48,50,52,-1,-1,-1,-1,-1,-1,-1,-1,-1,-1,-1,-1,-1,-1,-1,-1,-1,-1,-1,-1,-1,-1],"split_conditions":[-1.75E0,-9.25E0,6.25E0,-1.35E1,7.8666664E1,7.9833336E1,6.98E0,7.6083336E1,8.1583336E1,5.05E0,8.65E1,6.01E0,8.8833336E1,2.51E1,6.49E0,-8.352896E-1,8.475E1,7.6583336E1,8.6083336E1,-4.4331002E-1,0E0,-6.8333335E0,-4.6666665E0,-1.2672812E-1,2.6666667E0,6.05E0,4.4153425E-1,3.332881E-1,3E1,7.7666664E1,-6.666667E-1,-6.015177E-1,-2.3607408E-1,-5.889418E-1,-4.203944E-1,-2.722151E-1,-1.5693082E-1,-3.2583123E-1,-1.3734856E-1,-2.0432447E-1,-1.0587112E-1,-4.505857E-3,1.7402443E-1,-1.0297638E-1,4.5908023E-2,6.68173E-2,1.8576525E-1,1.857111E-1,-2.9489517E-3,1.2725942E-1,2.8446323E-1,2.0983087E-1,4.9989042E-1],"split_indices":[11,11,11,11,8,8,1,8,8,1,8,1,8,0,2,0,8,8,8,0,9,11,10,0,11,2,0,0,0,8,13,0,0,0,0,0,0,0,0,0,0,0,0,0,0,0,0,0,0,0,0,0,0],"split_type":[0,0,0,0,0,0,0,0,0,0,0,0,0,0,0,0,0,0,0,0,0,0,0,0,0,0,0,0,0,0,0,0,0,0,0,0,0,0,0,0,0,0,0,0,0,0,0,0,0,0,0,0,0],"sum_hessian":[1.022E3,4.18E2,6.04E2,1.48E2,2.7E2,3.56E2,2.48E2,6.3E1,8.5E1,5.7E1,2.13E2,1.09E2,2.47E2,7.6E1,1.72E2,2E1,4.3E1,6E1,2.5E1,1.8E1,3.9E1,1.99E2,1.4E1,7.5E1,3.4E1,2.37E2,1E1,7E0,6.9E1,3.1E1,1.41E2,4.1E1,2E0,1.8E1,4.2E1,1.5E1,1E1,3.6E1,3E0,4.9E1,1.5E2,5E0,9E0,1.9E1,1.5E1,1.6E1,2.21E2,6.8E1,1E0,1.1E1,2E1,3E0,1.38E2],"tree_param":{"num_deleted":"0","num_feature":"14","num_nodes":"53","size_leaf_vector":"1"}},{"base_weights":[-3.2312018E-3,-5.89705E0,3.833945E0,-1.0171803E1,-3.429011E0,1.5320833E0,6.964604E0,-8.704919E-1,-8.961394E0,-6.954453E0,-2.2239192E0,-1.9031336E0,3.522905E0,3.8275158E0,8.611665E0,-1.0649488E1,-6.203889E0,-4.1321102E-1,-5.929243E0,-3.0356956E0,-9.615589E-1,-2.401442E0,-5.5878943E-1,2.440564E0,3.923801E0,3.2791963E-1,3.45238E0,4.5904245E0,9.469294E0,-6.1451274E-1,-4.6204528E-1,-3.473146E-1,-1.7497289E-1,-3.3097407E-1,-1.8835317E-1,-2.6975262E-1,-1.200506E-1,-1.02199875E-1,4.502733E-2,-2.47828E-1,-1.1328613E-1,-1.1807549E-1,4.635824E-2,-2.6102016E-2,1.6402669E-1,1.8565677E-1,3.3983678E-1,1.7702319E-1,-3.8335163E-3,6.0811725E-2,2.6611528E-1,9.238606E-2,4.755416E-1],"categories":[],"categories_nodes":[],"categories_segments":[],"categories_sizes":[],"default_left":[0,0,0,0,0,0,0,0,0,0,0,0,0,0,0,0,0,0,0,0,0,0,0,0,0,0,0,0,0,0,0,0,0,0,0,0,0,0,0,0,0,0,0,0,0,0,0,0,0,0,0,0,0],"id":8,"left_children":[1,3,5,7,9,11,13,-1,15,17,19,21,23,25,27,29,31,-1,33,35,37,39,41,43,45,-1,47,49,51,-1,-1,-1,-1,-1,-1,-1,-1,-1,-1,-1,-1,-1,-1,-1,-1,-1,-1,-1,-1,-1,-1,-1,-1],"loss_changes":[2.3113158E4,4.216876E3,4.4500576E3,1.1318486E3,1.0763938E3,2.4550325E3,1.3207871E3,0E0,5.297627E2,3.8280518E1,1.9485852E2,8.7084656E1,8.892041E1,7.16073E1,5.462637E2,6.6697266E1,7.808838E1,0E0,3.4760742E1,1.6224756E2,1.5704308E2,2.2060547E1,1.0130363E2,1.6097644E2,7.402026E1,0E0,2.6072083E1,7.2550964E1,2.6749023E1,0E0,0E0,0E0,0E0,0E0,0E0,0E0,0E0,0E0,0E0,0E0,0E0,0E0,0E0,0E0,0E0,0E0,0E0,0E0,0E0,0E0,0E0,0E0,0E0],"parents":[2147483647,0,0,1,1,2,2,3,3,4,4,5,5,6,6,8,8,9,9,10,10,11,11,12,12,13,13,14,14,15,15,16,16,18,18,19,19,20,20,21,21,22,22,23,23,24,24,26,26,27,27,28,28],"right_children":[2,4,6,8,10,12,14,-1,16,18,20,22,24,26,28,30,32,-1,34,36,38,40,42,44,46,-1,48,50,52,-1,-1,-1,-1,-1,-1,-1,-1,-1,-1,-1,-1,-1,-1,-1,-1,-1,-1,-1,-1,-1,-1,-1,-1],"split_conditions":[-2E0,-9.25E0,5.75E0,-1.85E1,7.9083336E1,8.0333336E1,6.99E0,-8.704919E-1,8.0833336E1,7.5166664E1,8.3E1,2.5E0,8.225E1,2.51E1,6.49E0,7.6833336E1,8.5666664E1,-4.1321102E-1,-4.5E0,-6E0,-5.75E0,7.2833336E1,7.4666664E1,8.333333E-1,3.8333333E0,3.2791963E-1,3E1,5.951E0,-1.3333334E0,-6.1451274E-1,-4.6204528E-1,-3.473146E-1,-1.7497289E-1,-3.3097407E-1,-1.8835317E-1,-2.6975262E-1,-1.200506E-1,-1.02199875E-1,4.502733E-2,-2.47828E-1,-1.1328613E-1,-1.1807549E-1,4.635824E-2,-2.6102016E-2,1.6402669E-1,1.8565677E-1,3.3983678E-1,1.7702319E-1,-3.8335163E-3,6.0811725E-2,2.6611528E-1,9.238606E-2,4.755416E-1],"split_indices":[11,11,11,11,8,8,1,0,8,8,8,11,8,0,2,8,8,0,11,11,11,8,8,11,11,0,0,2,13,0,0,0,0,0,0,0,0,0,0,0,0,0,0,0,0,0,0,0,0,0,0,0,0],"split_type":[0,0,0,0,0,0,0,0,0,0,0,0,0,0,0,0,0,0,0,0,0,0,0,0,0,0,0,0,0,0,0,0,0,0,0,0,0,0,0,0,0,0,0,0,0,0,0,0,0,0,0,0,0],"sum_hessian":[1.02E3,4.02E2,6.18E2,1.46E2,2.56E2,3.57E2,2.61E2,1.9E1,1.27E2,6.4E1,1.92E2,1.31E2,2.26E2,9.1E1,1.7E2,7.7E1,5E1,2.5E1,3.9E1,1.16E2,7.6E1,9.5E1,3.6E1,6.3E1,1.63E2,9E0,8.2E1,3.1E1,1.39E2,3.2E1,4.5E1,3.8E1,1.2E1,2.8E1,1.1E1,2.3E1,9.3E1,4.8E1,2.8E1,3E0,9.2E1,1.6E1,2E1,1.4E1,4.9E1,1.54E2,9E0,8E1,2E0,6E0,2.5E1,1E0,1.38E2],"tree_param":{"num_deleted":"0","num_feature":"14","num_nodes":"53","size_leaf_vector":"1"}},{"base_weights":[8.6782336E-2,-4.751567E0,4.3483324E0,-9.189033E0,-2.4105425E0,2.4049308E0,7.181085E0,-1.3822714E1,-7.766708E0,-2.9683864E0,2.7238014E0,-1.1872251E-1,3.2570806E0,6.3305545E-1,8.263202E0,-7.2366065E-1,-3.3824417E-1,-8.718608E0,-3.5342116E0,-6.5388055E0,-2.3135896E0,2.3783365E-2,3.242121E0,-1.1526383E0,3.4650395E0,-1.11921124E-1,1.5266061E0,5.3329587E0,8.879512E0,-5.596244E-1,-3.7989327E-1,-2.133127E-1,-8.793878E-2,-3.579839E-1,-2.169123E-1,-1.4416541E-1,-6.2373634E-2,-1.5053558E-2,2.2449749E-2,1.6782165E-1,6.234589E-2,-1.6957754E-1,-2.186203E-2,3.1978706E-1,1.6611142E-1,8.373063E-2,-5.0638773E-2,2.727026E-1,3.0394746E-2,1.1880048E-1,4.4749576E-1],"categories":[],"categories_nodes":[],"categories_segments":[],"categories_sizes":[],"default_left":[0,0,0,0,0,0,0,0,0,0,0,0,0,0,0,0,0,0,0,0,0,0,0,0,0,0,0,0,0,0,0,0,0,0,0,0,0,0,0,0,0,0,0,0,0,0,0,0,0,0,0],"id":9,"left_children":[1,3,5,7,9,11,13,15,17,19,21,-1,23,25,27,-1,-1,29,31,33,35,37,39,41,43,-1,45,47,49,-1,-1,-1,-1,-1,-1,-1,-1,-1,-1,-1,-1,-1,-1,-1,-1,-1,-1,-1,-1,-1,-1],"loss_changes":[2.0825096E4,4.8914756E3,2.9390088E3,9.6691113E2,8.988397E2,1.3110133E3,1.539458E3,7.196094E1,4.808584E2,6.4182153E2,4.330652E1,0E0,2.5342871E2,8.552315E1,2.9035742E2,0E0,0E0,2.0053711E2,2.4989014E1,2.7688965E1,1.4156848E2,9.639709E-1,1.744751E0,1.9339344E1,8.757129E1,0E0,1.1092133E1,1.6710632E1,4.8789062E1,0E0,0E0,0E0,0E0,0E0,0E0,0E0,0E0,0E0,0E0,0E0,0E0,0E0,0E0,0E0,0E0,0E0,0E0,0E0,0E0,0E0,0E0],"parents":[2147483647,0,0,1,1,2,2,3,3,4,4,5,5,6,6,7,7,8,8,9,9,10,10,12,12,13,13,14,14,17,17,18,18,19,19,20,20,21,21,22,22,23,23,24,24,26,26,27,27,28,28],"right_children":[2,4,6,8,10,12,14,16,18,20,22,-1,24,26,28,-1,-1,30,32,34,36,38,40,42,44,-1,46,48,50,-1,-1,-1,-1,-1,-1,-1,-1,-1,-1,-1,-1,-1,-1,-1,-1,-1,-1,-1,-1,-1,-1],"split_conditions":[-8.3333336E-2,-8.5E0,6.99E0,-1.5833333E1,8.5583336E1,6.01E0,5.951E0,8.4E1,8.3916664E1,7.7166664E1,-5.75E0,-1.1872251E-1,6.5E0,5.47E0,6.49E0,-7.2366065E-1,-3.3824417E-1,7.6916664E1,-1.0666667E1,7.6083336E1,8.275E1,-2.6659793E-1,2.984E1,5.67E0,2.51E1,-1.11921124E-1,3E1,3E1,-1.3333334E0,-5.596244E-1,-3.7989327E-1,-2.133127E-1,-8.793878E-2,-3.579839E-1,-2.169123E-1,-1.4416541E-1,-6.2373634E-2,-1.5053558E-2,2.2449749E-2,1.6782165E-1,6.234589E-2,-1.6957754E-1,-2.186203E-2,3.1978706E-1,1.6611142E-1,8.373063E-2,-5.0638773E-2,2.727026E-1,3.0394746E-2,1.1880048E-1,4.4749576E-1],"split_indices":[11,11,1,11,8,1,2,8,8,8,11,0,2,2,2,0,0,8,11,8,8,4,0,2,0,0,0,0,13,0,0,0,0,0,0,0,0,0,0,0,0,0,0,0,0,0,0,0,0,0,0],"split_type":[0,0,0,0,0,0,0,0,0,0,0,0,0,0,0,0,0,0,0,0,0,0,0,0,0,0,0,0,0,0,0,0,0,0,0,0,0,0,0,0,0,0,0,0,0,0,0,0,0,0,0],"sum_hessian":[1.008E3,4.72E2,5.36E2,1.62E2,3.1E2,3.19E2,2.17E2,3.6E1,1.26E2,2.8E2,3E1,4.8E1,2.71E2,3.1E1,1.86E2,3.2E1,4E0,1.02E2,2.4E1,4.2E1,2.38E2,5E0,2.5E1,1.2E1,2.59E2,7E0,2.4E1,3.4E1,1.52E2,2.9E1,7.3E1,1.6E1,8E0,3.1E1,1.1E1,1.54E2,8.4E1,3E0,2E0,2.3E1,2E0,2E0,1E1,1E1,2.49E2,2.3E1,1E0,3.3E1,1E0,2E0,1.5E2],"tree_param":{"num_deleted":"0","num_feature":"14","num_nodes":"51","size_leaf_vector":"1"}},{"base_weights":[-5.345777E-2,-5.1697917E0,3.3879232E0,-9.138511E0,-2.8888624E0,1.4967433E0,6.2533197E0,-7.3882645E-1,-7.84759E0,-6.160837E0,-1.8378959E0,-1.9807332E0,3.113696E0,3.4495316E0,7.642652E0,-5.556026E-1,-6.60485E0,-6.4555926E0,-1.961799E-1,-2.0703678E0,1.6886881E-1,1.0391327E0,-2.0948079E0,2.9830422E0,3.1767246E-1,2.9036957E-1,3.1559472E0,3.953206E0,8.513714E0,-3.6453146E-1,-1.6712017E-1,-3.3950257E-1,-1.9958434E-1,-1.476529E-1,-6.847339E-2,6.4381026E-2,1.1295319E-3,-1.2369678E-1,-7.134039E-2,7.9349585E-2,1.6030183E-1,1.6008618E-1,-6.9322586E-3,7.773464E-2,2.393935E-1,1.465332E-1,4.2887768E-1],"categories":[],"categories_nodes":[],"categories_segments":[],"categories_sizes":[],"default_left":[0,0,0,0,0,0,0,0,0,0,0,0,0,0,0,0,0,0,0,0,0,0,0,0,0,0,0,0,0,0,0,0,0,0,0,0,0,0,0,0,0,0,0,0,0,0,0],"id":10,"left_children":[1,3,5,7,9,11,13,-1,15,17,19,21,23,25,27,-1,29,31,-1,33,-1,35,37,39,-1,-1,41,43,45,-1,-1,-1,-1,-1,-1,-1,-1,-1,-1,-1,-1,-1,-1,-1,-1,-1,-1],"loss_changes":[1.8170594E4,3.730333E3,3.334151E3,9.830537E2,8.999419E2,2.1035146E3,9.280088E2,0E0,4.3371582E2,1.6875E1,2.5189813E2,4.3171143E1,8.898511E1,3.912726E1,4.9018164E2,0E0,1.837024E2,1.8220459E1,0E0,1.1597931E2,0E0,1.2339034E0,2.5594727E1,7.180615E1,0E0,0E0,1.1905884E1,5.862079E1,2.155371E1,0E0,0E0,0E0,0E0,0E0,0E0,0E0,0E0,0E0,0E0,0E0,0E0,0E0,0E0,0E0,0E0,0E0,0E0],"parents":[2147483647,0,0,1,1,2,2,3,3,4,4,5,5,6,6,8,8,9,9,10,10,11,11,12,12,13,13,14,14,16,16,17,17,19,19,21,21,22,22,23,23,26,26,27,27,28,28],"right_children":[2,4,6,8,10,12,14,-1,16,18,20,22,24,26,28,-1,30,32,-1,34,-1,36,38,40,-1,-1,42,44,46,-1,-1,-1,-1,-1,-1,-1,-1,-1,-1,-1,-1,-1,-1,-1,-1,-1,-1],"split_conditions":[-2E0,-9.25E0,6.25E0,-1.75E1,7.9083336E1,7.9333336E1,6.98E0,-7.3882645E-1,7.6916664E1,-3.5E0,8.8E1,2.57E1,8.8166664E1,2.51E1,6.49E0,-5.556026E-1,8.48E1,7.8666664E1,-1.961799E-1,8.225E1,1.6886881E-1,2.54E1,7.7083336E1,6.5E0,3.1767246E-1,2.9036957E-1,3E1,5.9E0,-6.666667E-1,-3.6453146E-1,-1.6712017E-1,-3.3950257E-1,-1.9958434E-1,-1.476529E-1,-6.847339E-2,6.4381026E-2,1.1295319E-3,-1.2369678E-1,-7.134039E-2,7.9349585E-2,1.6030183E-1,1.6008618E-1,-6.9322586E-3,7.773464E-2,2.393935E-1,1.465332E-1,4.2887768E-1],"split_indices":[11,11,11,11,8,8,1,0,8,11,8,0,8,0,2,0,8,7,0,8,0,0,8,2,0,0,0,2,13,0,0,0,0,0,0,0,0,0,0,0,0,0,0,0,0,0,0],"split_type":[0,0,0,0,0,0,0,0,0,0,0,0,0,0,0,0,0,0,0,0,0,0,0,0,0,0,0,0,0,0,0,0,0,0,0,0,0,0,0,0,0,0,0,0,0,0,0],"sum_hessian":[1.03E3,4.14E2,6.16E2,1.5E2,2.64E2,3.72E2,2.44E2,2.6E1,1.24E2,6.3E1,2.01E2,1.18E2,2.54E2,8.2E1,1.62E2,3.2E1,9.2E1,5.4E1,9E0,1.93E2,8E0,4E0,1.14E2,2.46E2,8E0,7E0,7.5E1,3.2E1,1.3E2,7.5E1,1.7E1,4.6E1,8E0,8.4E1,1.09E2,3E0,1E0,7.1E1,4.3E1,3.5E1,2.11E2,7.4E1,1E0,9E0,2.3E1,2E0,1.28E2],"tree_param":{"num_deleted":"0","num_feature":"14","num_nodes":"47","size_leaf_vector":"1"}},{"base_weights":[-1.3320309E-1,-5.243659E0,3.3286679E0,-8.905302E0,-2.9735515E0,1.4535483E0,6.1392746E0,-1.2281943E1,-7.1345243E0,-6.1868463E0,-1.967592E0,-1.7328572E0,3.0156941E0,3.2490478E0,7.4142656E0,-8.2579577E-1,-5.339501E-1,-5.4305667E-1,-6.268523E0,-6.63951E0,-4.7114735E0,-2.2290957E0,1.6845709E0,-2.1633894E0,-6.620543E-1,2.891227E0,3.8184872E-1,2.757925E-1,2.9478722E0,4.004895E0,4.06772E-1,-3.4135285E-1,-1.6293068E-1,-3.5183388E-1,-2.2728781E-1,-1.143282E-1,-2.5220087E-1,-1.5654229E-1,-7.5860105E-2,3.6099025E-3,1.4424129E-1,-2.0556977E-1,-1.0108411E-1,-1.0488868E-1,4.042549E-2,1.0829383E-1,1.6690166E-1,1.520577E-1,-9.011841E-3,1.1314323E-1,2.3469348E-1],"categories":[],"categories_nodes":[],"categories_segments":[],"categories_sizes":[],"default_left":[0,0,0,0,0,0,0,0,0,0,0,0,0,0,0,0,0,0,0,0,0,0,0,0,0,0,0,0,0,0,0,0,0,0,0,0,0,0,0,0,0,0,0,0,0,0,0,0,0,0,0],"id":11,"left_children":[1,3,5,7,9,11,13,15,17,19,21,23,25,27,29,-1,-1,-1,31,33,35,37,39,41,43,45,-1,-1,47,49,-1,-1,-1,-1,-1,-1,-1,-1,-1,-1,-1,-1,-1,-1,-1,-1,-1,-1,-1,-1,-1],"loss_changes":[1.8487629E4,3.4813203E3,3.2744263E3,8.750381E2,8.3472705E2,1.8718369E3,8.934785E2,1.9011426E2,2.8045898E2,1.0124756E1,1.9572089E2,5.5733612E1,1.22869385E2,3.699109E1,3.9032422E2,0E0,0E0,0E0,1.2905591E2,5.4335938E0,2.981598E0,1.1593652E2,2.6885338E1,1.5980164E1,7.9814804E1,7.28208E1,0E0,0E0,2.1265686E1,2.7785217E1,0E0,0E0,0E0,0E0,0E0,0E0,0E0,0E0,0E0,0E0,0E0,0E0,0E0,0E0,0E0,0E0,0E0,0E0,0E0,0E0,0E0],"parents":[2147483647,0,0,1,1,2,2,3,3,4,4,5,5,6,6,7,7,8,8,9,9,10,10,11,11,12,12,13,13,14,14,18,18,19,19,20,20,21,21,22,22,23,23,24,24,25,25,28,28,29,29],"right_children":[2,4,6,8,10,12,14,16,18,20,22,24,26,28,30,-1,-1,-1,32,34,36,38,40,42,44,46,-1,-1,48,50,-1,-1,-1,-1,-1,-1,-1,-1,-1,-1,-1,-1,-1,-1,-1,-1,-1,-1,-1,-1,-1],"split_conditions":[-2E0,-9.5E0,6.25E0,7.7666664E1,7.9083336E1,7.9833336E1,6.98E0,-1.85E1,-1.675E1,6.8E0,8.6583336E1,2.5E0,8.9E1,2.51E1,6.49E0,-8.2579577E-1,-5.339501E-1,-5.4305667E-1,8.48E1,7.7666664E1,6.907E0,-6E0,-4.6666665E0,7.425E1,7.4666664E1,8.225E1,3.8184872E-1,2.757925E-1,3E1,7.7666664E1,4.06772E-1,-3.4135285E-1,-1.6293068E-1,-3.5183388E-1,-2.2728781E-1,-1.143282E-1,-2.5220087E-1,-1.5654229E-1,-7.5860105E-2,3.6099025E-3,1.4424129E-1,-2.0556977E-1,-1.0108411E-1,-1.0488868E-1,4.042549E-2,1.0829383E-1,1.6690166E-1,1.520577E-1,-9.011841E-3,1.1314323E-1,2.3469348E-1],"split_indices":[11,11,11,8,8,8,1,11,11,1,8,11,8,0,2,0,0,0,8,8,1,11,10,8,8,8,0,0,0,8,0,0,0,0,0,0,0,0,0,0,0,0,0,0,0,0,0,0,0,0,0],"split_type":[0,0,0,0,0,0,0,0,0,0,0,0,0,0,0,0,0,0,0,0,0,0,0,0,0,0,0,0,0,0,0,0,0,0,0,0,0,0,0,0,0,0,0,0,0,0,0,0,0,0,0],"sum_hessian":[1.043E3,4.21E2,6.22E2,1.6E2,2.61E2,3.74E2,2.48E2,5.3E1,1.07E2,6.1E1,2E2,1.23E2,2.51E2,7.7E1,1.71E2,1.2E1,4.1E1,1.8E1,8.9E1,4.4E1,1.7E1,1.87E2,1.3E1,8.7E1,3.6E1,2.46E2,5E0,7E0,7E1,3.1E1,1.4E2,7.4E1,1.5E1,3.5E1,9E0,3E0,1.4E1,8.1E1,1.06E2,6E0,7E0,4E0,8.3E1,1.8E1,1.8E1,9.6E1,1.5E2,6.8E1,2E0,1E1,2.1E1],"tree_param":{"num_deleted":"0","num_feature":"14","num_nodes":"51","size_leaf_vector":"1"}},{"base_weights":[1.01319015E-1,-4.2663016E0,3.5228198E0,-8.0677E0,-2.4900494E0,1.6092E0,5.9196587E0,-1.1346268E1,-6.510035E0,-5.776491E0,-1.6843876E0,-1.8729811E0,2.8636146E0,3.0887318E0,7.147051E0,-7.2578E-1,-4.8289385E-1,-9.091028E0,-5.553985E0,-3.4206748E-1,-5.019785E0,-2.146657E0,2.4874828E0,-2.006605E0,2.876447E-1,2.702272E0,3.1763336E-1,2.5956783E-1,2.8513038E0,4.1486025E0,7.688269E0,-4.6210533E-1,-1.328514E-1,-3.1086022E-1,-1.601101E-1,-2.854297E-1,-1.7455992E-1,-1.723346E-1,-8.842444E-2,4.016037E-3,1.4607488E-1,-2.1201639E-1,-9.349181E-2,7.312365E-2,-6.873372E-2,6.412706E-2,1.4686069E-1,1.4466833E-1,-6.5336227E-3,1.1547323E-1,2.2560795E-1,1.5549783E-1,3.8795513E-1],"categories":[],"categories_nodes":[],"categories_segments":[],"categories_sizes":[],"default_left":[0,0,0,0,0,0,0,0,0,0,0,0,0,0,0,0,0,0,0,0,0,0,0,0,0,0,0,0,0,0,0,0,0,0,0,0,0,0,0,0,0,0,0,0,0,0,0,0,0,0,0,0,0],"id":12,"left_children":[1,3,5,7,9,11,13,15,17,19,21,23,25,27,29,-1,-1,31,33,-1,35,37,39,41,43,45,-1,-1,47,49,51,-1,-1,-1,-1,-1,-1,-1,-1,-1,-1,-1,-1,-1,-1,-1,-1,-1,-1,-1,-1,-1,-1],"loss_changes":[1.5750868E4,3.1061992E3,2.7011772E3,6.7685156E2,8.296102E2,1.446836E3,8.8828516E2,1.0595947E2,2.011997E2,1.5616455E1,4.9904303E2,2.5983765E1,1.19625854E2,2.5634827E1,2.6345703E2,0E0,0E0,7.1655273E-1,1.0019165E2,0E0,2.2186401E1,1.07471436E2,2.6928696E1,1.742807E1,1.3728061E1,7.4284546E1,0E0,0E0,9.7854E0,9.638245E0,2.5486328E1,0E0,0E0,0E0,0E0,0E0,0E0,0E0,0E0,0E0,0E0,0E0,0E0,0E0,0E0,0E0,0E0,0E0,0E0,0E0,0E0,0E0,0E0],"parents":[2147483647,0,0,1,1,2,2,3,3,4,4,5,5,6,6,7,7,8,8,9,9,10,10,11,11,12,12,13,13,14,14,17,17,18,18,20,20,21,21,22,22,23,23,24,24,25,25,28,28,29,29,30,30],"right_children":[2,4,6,8,10,12,14,16,18,20,22,24,26,28,30,-1,-1,32,34,-1,36,38,40,42,44,46,-1,-1,48,50,52,-1,-1,-1,-1,-1,-1,-1,-1,-1,-1,-1,-1,-1,-1,-1,-1,-1,-1,-1,-1,-1,-1],"split_conditions":[-1E0,-9.25E0,6.25E0,7.7666664E1,7.8083336E1,7.8416664E1,6.98E0,-1.5833333E1,-1.5E1,7.4666664E1,8.65E1,4.75E0,8.7166664E1,2.51E1,6.49E0,-7.2578E-1,-4.8289385E-1,8.5166664E1,8.3166664E1,-3.4206748E-1,-4.5E0,-6.8333335E0,-6.6666665E0,7.2333336E1,2.791E1,8.0333336E1,3.1763336E-1,2.5956783E-1,3E1,5.88E0,-6.666667E-1,-4.6210533E-1,-1.328514E-1,-3.1086022E-1,-1.601101E-1,-2.854297E-1,-1.7455992E-1,-1.723346E-1,-8.842444E-2,4.016037E-3,1.4607488E-1,-2.1201639E-1,-9.349181E-2,7.312365E-2,-6.873372E-2,6.412706E-2,1.4686069E-1,1.4466833E-1,-6.5336227E-3,1.1547323E-1,2.2560795E-1,1.5549783E-1,3.8795513E-1],"split_indices":[11,11,11,8,8,8,1,11,11,8,8,11,8,0,2,0,0,7,8,0,11,11,11,8,0,8,0,0,0,2,13,0,0,0,0,0,0,0,0,0,0,0,0,0,0,0,0,0,0,0,0,0,0],"split_type":[0,0,0,0,0,0,0,0,0,0,0,0,0,0,0,0,0,0,0,0,0,0,0,0,0,0,0,0,0,0,0,0,0,0,0,0,0,0,0,0,0,0,0,0,0,0,0,0,0,0,0,0,0],"sum_hessian":[1.052E3,4.62E2,5.9E2,1.46E2,3.16E2,3.29E2,2.61E2,4.5E1,1.01E2,6.1E1,2.55E2,8.7E1,2.42E2,8E1,1.81E2,1.3E1,3.2E1,2.5E1,7.6E1,2.2E1,3.9E1,2.3E2,2.5E1,8.2E1,5E0,2.33E2,9E0,6E0,7.4E1,2.9E1,1.52E2,2.4E1,1E0,5.8E1,1.8E1,2.5E1,1.4E1,5E1,1.8E2,4E0,2.1E1,3E0,7.9E1,3E0,2E0,3.4E1,1.99E2,7.3E1,1E0,6E0,2.3E1,3E0,1.49E2],"tree_param":{"num_deleted":"0","num_feature":"14","num_nodes":"53","size_leaf_vector":"1"}},{"base_weights":[-9.493509E-2,-4.655068E0,2.9207897E0,-7.946648E0,-2.3602505E0,8.6996114E-1,4.8531704E0,-1.3596559E1,-6.956686E0,-5.2886505E0,-1.5353006E0,-1.4934545E0,2.763956E0,2.8434937E0,6.5327616E0,-2.566705E-1,-7.0662993E-1,-7.8711376E0,-4.174649E0,-3.1599584E-1,-4.0615077E0,-1.7623239E0,2.7500527E0,-2.1515412E0,-8.13405E-1,8.002609E-1,2.8700755E0,-8.33951E-2,2.9490638E0,3.6890743E0,7.360268E0,-4.7584626E-1,-3.5424754E-1,-2.4987407E-1,-1.2899035E-1,-2.2128212E-1,-1.19444445E-1,-1.17249705E-1,-5.1953938E-2,1.4924197E-1,1.5924264E-2,-1.6096286E-1,-9.326292E-2,-8.022932E-2,3.058052E-2,9.802151E-3,5.1560264E-2,1.3451122E-1,2.6404163E-1,2.6447597E-1,1.3862483E-1,8.9063525E-2,2.2085436E-1,7.476807E-2,3.6966857E-1],"categories":[],"categories_nodes":[],"categories_segments":[],"categories_sizes":[],"default_left":[0,0,0,0,0,0,0,0,0,0,0,0,0,0,0,0,0,0,0,0,0,0,0,0,0,0,0,0,0,0,0,0,0,0,0,0,0,0,0,0,0,0,0,0,0,0,0,0,0,0,0,0,0,0,0],"id":13,"left_children":[1,3,5,7,9,11,13,15,17,19,21,23,25,27,29,-1,-1,31,33,-1,35,37,39,41,43,45,47,-1,49,51,53,-1,-1,-1,-1,-1,-1,-1,-1,-1,-1,-1,-1,-1,-1,-1,-1,-1,-1,-1,-1,-1,-1,-1,-1],"loss_changes":[1.4164513E4,3.078209E3,2.4528267E3,8.450703E2,5.789158E2,1.3559695E3,1.058188E3,3.632959E1,3.3602637E2,4.1403687E1,1.9066559E2,5.8666718E1,3.271216E1,7.4930176E1,3.799458E2,0E0,0E0,7.2313965E1,3.6974365E1,0E0,5.8722534E0,7.426056E1,4.758377E0,1.4780731E1,7.764769E1,1.1932464E0,5.4732178E1,0E0,4.484265E1,4.907715E1,1.4765137E1,0E0,0E0,0E0,0E0,0E0,0E0,0E0,0E0,0E0,0E0,0E0,0E0,0E0,0E0,0E0,0E0,0E0,0E0,0E0,0E0,0E0,0E0,0E0,0E0],"parents":[2147483647,0,0,1,1,2,2,3,3,4,4,5,5,6,6,7,7,8,8,9,9,10,10,11,11,12,12,13,13,14,14,17,17,18,18,20,20,21,21,22,22,23,23,24,24,25,25,26,26,28,28,29,29,30,30],"right_children":[2,4,6,8,10,12,14,16,18,20,22,24,26,28,30,-1,-1,32,34,-1,36,38,40,42,44,46,48,-1,50,52,54,-1,-1,-1,-1,-1,-1,-1,-1,-1,-1,-1,-1,-1,-1,-1,-1,-1,-1,-1,-1,-1,-1,-1,-1],"split_conditions":[-2E0,-8.5E0,4.5E0,-1.85E1,7.9083336E1,8.1583336E1,6.99E0,2.54E1,8.2083336E1,7.5833336E1,8.7666664E1,7.725E1,6.22E0,6.01E0,6.49E0,-2.566705E-1,-7.0662993E-1,7.6833336E1,8.4166664E1,-3.1599584E-1,-4.1666665E0,8.2666664E1,2.984E1,2.5E-1,1.25E0,6.99E0,7.01E0,-8.33951E-2,2.51E1,5.951E0,-2.6666667E0,-4.7584626E-1,-3.5424754E-1,-2.4987407E-1,-1.2899035E-1,-2.2128212E-1,-1.19444445E-1,-1.17249705E-1,-5.1953938E-2,1.4924197E-1,1.5924264E-2,-1.6096286E-1,-9.326292E-2,-8.022932E-2,3.058052E-2,9.802151E-3,5.1560264E-2,1.3451122E-1,2.6404163E-1,2.6447597E-1,1.3862483E-1,8.9063525E-2,2.2085436E-1,7.476807E-2,3.6966857E-1],"split_indices":[11,11,11,11,8,8,1,0,8,8,8,8,2,1,2,0,0,8,7,0,11,8,0,11,11,1,1,0,0,2,12,0,0,0,0,0,0,0,0,0,0,0,0,0,0,0,0,0,0,0,0,0,0,0,0],"split_type":[0,0,0,0,0,0,0,0,0,0,0,0,0,0,0,0,0,0,0,0,0,0,0,0,0,0,0,0,0,0,0,0,0,0,0,0,0,0,0,0,0,0,0,0,0,0,0,0,0,0,0,0,0,0,0],"sum_hessian":[1.028E3,4.09E2,6.19E2,1.67E2,2.42E2,3.01E2,3.18E2,2.3E1,1.44E2,5.2E1,1.9E2,1.34E2,1.67E2,1.46E2,1.72E2,2E0,2.1E1,1.07E2,3.7E1,2.6E1,2.6E1,1.81E2,9E0,6.7E1,6.7E1,9E0,1.58E2,3E0,1.43E2,4E1,1.32E2,3.1E1,7.6E1,2.3E1,1.4E1,2E1,6E0,9.9E1,8.2E1,8E0,1E0,1.2E1,5.5E1,4.3E1,2.4E1,3E0,6E0,1.49E2,9E0,8E0,1.35E2,1.2E1,2.8E1,1E0,1.31E2],"tree_param":{"num_deleted":"0","num_feature":"14","num_nodes":"55","size_leaf_vector":"1"}},{"base_weights":[5.9004858E-2,-3.6665466E0,3.3154058E0,-7.9942775E0,-2.1132984E0,1.8709084E0,5.5633955E0,-5.9944504E-1,-6.858502E0,-3.1664665E0,-4.143493E-2,-1.8022892E0,2.5403826E0,5.8873075E-1,6.452391E0,-4.6705708E-1,-5.590136E0,-5.224351E0,-2.3125813E0,-1.5428606E0,1.7556535E0,-1.5224457E-2,-9.126188E-2,-5.1588386E-1,2.6984248E0,-8.932462E-2,1.1615105E0,4.165177E0,6.924662E0,-3.110341E-1,-1.9113193E-1,-2.938482E-1,-1.8779145E-1,-2.611809E-1,-8.991383E-2,-8.532998E-2,5.220849E-3,3.0068843E-2,1.270963E-1,-1.0153746E-1,-6.330813E-3,2.5125208E-1,1.2956306E-1,6.312163E-2,-3.9084624E-2,2.1795686E-1,3.5393905E-2,1.1313744E-1,3.501936E-1],"categories":[],"categories_nodes":[],"categories_segments":[],"categories_sizes":[],"default_left":[0,0,0,0,0,0,0,0,0,0,0,0,0,0,0,0,0,0,0,0,0,0,0,0,0,0,0,0,0,0,0,0,0,0,0,0,0,0,0,0,0,0,0,0,0,0,0,0,0],"id":14,"left_children":[1,3,5,7,9,11,13,-1,15,17,19,21,23,25,27,-1,29,31,33,35,37,-1,-1,39,41,-1,43,45,47,-1,-1,-1,-1,-1,-1,-1,-1,-1,-1,-1,-1,-1,-1,-1,-1,-1,-1,-1,-1],"loss_changes":[1.2641453E4,3.250018E3,1.7950435E3,4.9850928E2,7.832141E2,8.406763E2,9.558745E2,0E0,2.6896924E2,4.0613135E2,3.3188852E2,1.2659302E0,1.4050183E2,4.8331345E1,1.6991113E2,0E0,5.4234863E1,4.4055176E1,2.4512378E2,1.824968E1,4.9295593E1,0E0,0E0,8.588195E0,5.52948E1,0E0,6.47797E0,1.9713867E1,3.991162E1,0E0,0E0,0E0,0E0,0E0,0E0,0E0,0E0,0E0,0E0,0E0,0E0,0E0,0E0,0E0,0E0,0E0,0E0,0E0,0E0],"parents":[2147483647,0,0,1,1,2,2,3,3,4,4,5,5,6,6,8,8,9,9,10,10,11,11,12,12,13,13,14,14,16,16,17,17,18,18,19,19,20,20,23,23,24,24,26,26,27,27,28,28],"right_children":[2,4,6,8,10,12,14,-1,16,18,20,22,24,26,28,-1,30,32,34,36,38,-1,-1,40,42,-1,44,46,48,-1,-1,-1,-1,-1,-1,-1,-1,-1,-1,-1,-1,-1,-1,-1,-1,-1,-1,-1,-1],"split_conditions":[-8.3333336E-2,-1.0083333E1,6.99E0,-1.75E1,8.3E1,6.01E0,5.99E0,-5.9944504E-1,7.8083336E1,-5.75E0,-5.75E0,2.4E1,6.5E0,5.47E0,6.49E0,-4.6705708E-1,8.3583336E1,8.0333336E1,7.6083336E1,8.7166664E1,8.514286E1,-1.5224457E-2,-9.126188E-2,-2.8333333E0,2.51E1,-8.932462E-2,3E1,3E1,2.6666667E0,-3.110341E-1,-1.9113193E-1,-2.938482E-1,-1.8779145E-1,-2.611809E-1,-8.991383E-2,-8.532998E-2,5.220849E-3,3.0068843E-2,1.270963E-1,-1.0153746E-1,-6.330813E-3,2.5125208E-1,1.2956306E-1,6.312163E-2,-3.9084624E-2,2.1795686E-1,3.5393905E-2,1.1313744E-1,3.501936E-1],"split_indices":[11,11,1,11,8,1,2,0,8,11,11,0,2,2,2,0,8,8,8,8,8,0,0,10,0,0,0,0,11,0,0,0,0,0,0,0,0,0,0,0,0,0,0,0,0,0,0,0,0],"split_type":[0,0,0,0,0,0,0,0,0,0,0,0,0,0,0,0,0,0,0,0,0,0,0,0,0,0,0,0,0,0,0,0,0,0,0,0,0,0,0,0,0,0,0,0,0,0,0,0,0],"sum_hessian":[1.04E3,4.85E2,5.55E2,1.27E2,3.58E2,3.39E2,2.16E2,2.6E1,1.01E2,2.37E2,1.21E2,5.2E1,2.87E2,3.3E1,1.83E2,3.2E1,6.9E1,6.8E1,1.69E2,6.6E1,5.5E1,1E0,5.1E1,1.4E1,2.73E2,6E0,2.7E1,3.3E1,1.5E2,4.9E1,2E1,4.5E1,2.3E1,2.4E1,1.45E2,6E1,6E0,2.3E1,3.2E1,2E0,1.2E1,1E1,2.63E2,2.6E1,1E0,3.1E1,2E0,3E0,1.47E2],"tree_param":{"num_deleted":"0","num_feature":"14","num_nodes":"49","size_leaf_vector":"1"}},{"base_weights":[-9.860469E-2,-4.8657417E0,2.2469425E0,-9.074259E0,-3.651709E0,4.6992064E-1,4.4320765E0,-1.2514656E1,-7.504574E0,-5.6120396E0,-1.8753306E0,-1.5556548E0,2.3200955E0,2.545725E0,5.948375E0,-1.6189747E-1,-6.401108E-1,-4.447817E-1,-2.9475874E-1,-7.1710286E0,-4.9985056E0,-2.3790987E0,-1.183908E0,-1.876012E0,-7.4052083E-1,1.1569214E0,2.5612795E0,-7.684536E-2,2.647084E0,3.2082205E0,6.584995E0,-3.631829E-1,-1.0517216E-1,-2.9454148E-1,-1.8615492E-1,-1.7484452E-1,-8.718393E-2,-8.041225E-2,2.5329297E-2,-2.0966665E-1,-8.239787E-2,-8.895167E-2,2.9423747E-2,2.1951867E-2,1.196626E-1,4.537272E-2,1.3091698E-1,2.350016E-1,1.24102786E-1,7.21986E-2,1.8927956E-1,1.2379509E-1,3.3449805E-1],"categories":[],"categories_nodes":[],"categories_segments":[],"categories_sizes":[],"default_left":[0,0,0,0,0,0,0,0,0,0,0,0,0,0,0,0,0,0,0,0,0,0,0,0,0,0,0,0,0,0,0,0,0,0,0,0,0,0,0,0,0,0,0,0,0,0,0,0,0,0,0,0,0],"id":15,"left_children":[1,3,5,7,9,11,13,15,17,19,21,23,25,27,29,-1,-1,-1,-1,31,33,35,37,39,41,43,45,-1,47,49,51,-1,-1,-1,-1,-1,-1,-1,-1,-1,-1,-1,-1,-1,-1,-1,-1,-1,-1,-1,-1,-1,-1],"loss_changes":[1.1460834E4,1.6937988E3,2.6655596E3,3.111079E2,9.087998E2,1.4277233E3,8.658208E2,1.723462E1,6.845239E1,8.371704E1,4.5947723E1,4.6137146E1,5.2864014E1,6.1588135E1,2.7542773E2,0E0,0E0,0E0,0E0,2.1179199E-1,8.390918E1,5.0723938E1,4.4572388E1,6.1791412E1,7.4196396E1,3.0900787E1,1.310022E1,0E0,3.441028E1,2.9166962E1,4.2526855E1,0E0,0E0,0E0,0E0,0E0,0E0,0E0,0E0,0E0,0E0,0E0,0E0,0E0,0E0,0E0,0E0,0E0,0E0,0E0,0E0,0E0,0E0],"parents":[2147483647,0,0,1,1,2,2,3,3,4,4,5,5,6,6,7,7,8,8,9,9,10,10,11,11,12,12,13,13,14,14,19,19,20,20,21,21,22,22,23,23,24,24,25,25,26,26,28,28,29,29,30,30],"right_children":[2,4,6,8,10,12,14,16,18,20,22,24,26,28,30,-1,-1,-1,-1,32,34,36,38,40,42,44,46,-1,48,50,52,-1,-1,-1,-1,-1,-1,-1,-1,-1,-1,-1,-1,-1,-1,-1,-1,-1,-1,-1,-1,-1,-1],"split_conditions":[-3.5E0,-1.275E1,4.5E0,-1.85E1,8.0833336E1,8.1583336E1,6.98E0,2.54E1,8.0583336E1,7.5583336E1,8.375E1,1.3333334E0,-1.5833334E0,6.01E0,6.49E0,-1.6189747E-1,-6.401108E-1,-4.447817E-1,-2.9475874E-1,6.96E0,-7.5E0,-6.8333335E0,-6.6666665E0,7.55E1,7.5666664E1,8.45E1,5.7E0,-7.684536E-2,2.51E1,5.951E0,-6.666667E-1,-3.631829E-1,-1.0517216E-1,-2.9454148E-1,-1.8615492E-1,-1.7484452E-1,-8.718393E-2,-8.041225E-2,2.5329297E-2,-2.0966665E-1,-8.239787E-2,-8.895167E-2,2.9423747E-2,2.1951867E-2,1.196626E-1,4.537272E-2,1.3091698E-1,2.350016E-1,1.24102786E-1,7.21986E-2,1.8927956E-1,1.2379509E-1,3.3449805E-1],"split_indices":[11,11,11,11,8,8,1,0,8,8,8,11,11,1,2,0,0,0,0,1,11,11,11,8,8,8,2,0,0,2,13,0,0,0,0,0,0,0,0,0,0,0,0,0,0,0,0,0,0,0,0,0,0],"split_type":[0,0,0,0,0,0,0,0,0,0,0,0,0,0,0,0,0,0,0,0,0,0,0,0,0,0,0,0,0,0,0,0,0,0,0,0,0,0,0,0,0,0,0,0,0,0,0,0,0,0,0,0,0],"sum_hessian":[1.023E3,3.37E2,6.86E2,7.4E1,2.63E2,3.79E2,3.07E2,2.1E1,5.3E1,1.24E2,1.39E2,1.81E2,1.98E2,1.38E2,1.69E2,1E0,2E1,2.6E1,2.7E1,3.2E1,9.2E1,7.9E1,6E1,1.29E2,5.2E1,3.5E1,1.63E2,3E0,1.35E2,3.3E1,1.36E2,3.1E1,1E0,5.2E1,4E1,2.7E1,5.2E1,4.8E1,1.2E1,1E1,1.19E2,2.9E1,2.3E1,2.3E1,1.2E1,6E0,1.57E2,8E0,1.27E2,9E0,2.4E1,4E0,1.32E2],"tree_param":{"num_deleted":"0","num_feature":"14","num_nodes":"53","size_leaf_vector":"1"}},{"base_weights":[-4.4768915E-2,-3.7521808E0,2.865624E0,-6.866228E0,-1.8710333E0,1.603063E0,5.1687875E0,-1.1278506E1,-5.9613805E0,-3.2944865E0,-7.753606E-1,-1.6196195E0,2.3276858E0,6.706945E-1,5.877935E0,-2.6519862E-1,-1.1763876E1,-7.3329005E0,-4.510375E0,-4.5676966E0,-2.1038938E0,-1.1861519E0,1.73881E0,1.6750526E-1,-1.6997482E0,-5.372907E-1,2.481252E0,-7.311904E-2,1.1558048E0,3.9717894E0,6.255583E0,-6.151939E-1,-2.8589487E-1,-4.2390686E-1,-3.1905034E-1,-2.5264212E-1,-1.3227919E-1,-2.7644846E-1,-1.9819652E-1,-1.9448392E-1,-8.455144E-2,-7.760605E-2,7.7340486E-3,1.3095999E-2,1.16576694E-1,3.5460472E-2,-1.2473297E-2,-7.949735E-2,-1.7926954E-1,-1.1038685E-2,-5.403881E-2,2.3801906E-1,1.185264E-1,1.8922323E-1,3.8134184E-2,2.0243199E-1,3.781433E-2,6.104908E-2,3.1405038E-1],"categories":[],"categories_nodes":[],"categories_segments":[],"categories_sizes":[],"default_left":[0,0,0,0,0,0,0,0,0,0,0,0,0,0,0,0,0,0,0,0,0,0,0,0,0,0,0,0,0,0,0,0,0,0,0,0,0,0,0,0,0,0,0,0,0,0,0,0,0,0,0,0,0,0,0,0,0,0,0],"id":16,"left_children":[1,3,5,7,9,11,13,15,17,19,21,23,25,27,29,-1,31,33,35,37,39,41,43,45,47,49,51,-1,53,55,57,-1,-1,-1,-1,-1,-1,-1,-1,-1,-1,-1,-1,-1,-1,-1,-1,-1,-1,-1,-1,-1,-1,-1,-1,-1,-1,-1,-1],"loss_changes":[1.155608E4,2.7462617E3,1.7364443E3,6.3942676E2,4.5753906E2,9.121742E2,6.7229736E2,2.1700928E1,2.6344824E2,1.84422E2,1.7557278E2,1.0595108E1,1.4124146E2,3.273353E1,1.0688721E2,0E0,1.4533447E1,2.7661621E1,6.2501465E1,1.3486816E1,4.3558044E1,7.139209E1,2.0398636E1,1.0804237E0,8.585571E0,2.6857743E0,6.492627E1,0E0,2.2948193E1,5.0927124E0,1.165918E1,0E0,0E0,0E0,0E0,0E0,0E0,0E0,0E0,0E0,0E0,0E0,0E0,0E0,0E0,0E0,0E0,0E0,0E0,0E0,0E0,0E0,0E0,0E0,0E0,0E0,0E0,0E0,0E0],"parents":[2147483647,0,0,1,1,2,2,3,3,4,4,5,5,6,6,7,7,8,8,9,9,10,10,11,11,12,12,13,13,14,14,16,16,17,17,18,18,19,19,20,20,21,21,22,22,23,23,24,24,25,25,26,26,28,28,29,29,30,30],"right_children":[2,4,6,8,10,12,14,16,18,20,22,24,26,28,30,-1,32,34,36,38,40,42,44,46,48,50,52,-1,54,56,58,-1,-1,-1,-1,-1,-1,-1,-1,-1,-1,-1,-1,-1,-1,-1,-1,-1,-1,-1,-1,-1,-1,-1,-1,-1,-1,-1,-1],"split_conditions":[-1E0,-8.5E0,6.99E0,-1.75E1,8.0583336E1,6.01E0,5.99E0,2.61E1,7.9583336E1,-3.5E0,8.5583336E1,2.4E1,6.5E0,5.34E0,6.49E0,-2.6519862E-1,6.29E0,-1.2E1,8.48E1,7.6E1,7.55E1,-3.5E0,-4.6666665E0,2.36E1,3.004E1,7.95E1,2.51E1,-7.311904E-2,2.51E1,3E1,-2.6666667E0,-6.151939E-1,-2.8589487E-1,-4.2390686E-1,-3.1905034E-1,-2.5264212E-1,-1.3227919E-1,-2.7644846E-1,-1.9819652E-1,-1.9448392E-1,-8.455144E-2,-7.760605E-2,7.7340486E-3,1.3095999E-2,1.16576694E-1,3.5460472E-2,-1.2473297E-2,-7.949735E-2,-1.7926954E-1,-1.1038685E-2,-5.403881E-2,2.3801906E-1,1.185264E-1,1.8922323E-1,3.8134184E-2,2.0243199E-1,3.781433E-2,6.104908E-2,3.1405038E-1],"split_indices":[11,11,1,11,8,1,2,0,8,11,8,0,2,2,2,0,1,11,8,8,8,11,10,0,0,8,0,0,0,0,12,0,0,0,0,0,0,0,0,0,0,0,0,0,0,0,0,0,0,0,0,0,0,0,0,0,0,0,0],"split_type":[0,0,0,0,0,0,0,0,0,0,0,0,0,0,0,0,0,0,0,0,0,0,0,0,0,0,0,0,0,0,0,0,0,0,0,0,0,0,0,0,0,0,0,0,0,0,0,0,0,0,0,0,0,0,0,0,0,0,0],"sum_hessian":[1.069E3,4.7E2,5.99E2,1.76E2,2.94E2,3.88E2,2.11E2,2.8E1,1.48E2,1.27E2,1.67E2,7.1E1,3.17E2,2.9E1,1.82E2,3E0,2.5E1,7.4E1,7.4E1,6E1,6.7E1,1.44E2,2.3E1,3E0,6.8E1,1.6E1,3.01E2,5E0,2.4E1,3.2E1,1.5E2,2.2E1,3E0,3E1,4.4E1,5.6E1,1.8E1,2E1,4E1,1.1E1,5.6E1,1.13E2,3.1E1,7E0,1.6E1,1E0,2E0,6.6E1,2E0,1.1E1,5E0,1.2E1,2.89E2,2E0,2.2E1,3.1E1,1E0,1E0,1.49E2],"tree_param":{"num_deleted":"0","num_feature":"14","num_nodes":"59","size_leaf_vector":"1"}},{"base_weights":[4.052714E-3,-4.41045E0,2.1202452E0,-7.927233E0,-3.116414E0,5.6347656E-1,4.0920086E0,-9.650803E0,-5.818895E0,-5.175716E0,-1.6422735E0,-1.4310113E0,2.1312478E0,2.4035723E0,5.397892E0,-6.200696E-1,-4.1947278E-1,-3.982572E-1,-5.016501E0,-3.4654298E-1,-4.6692853E0,-2.1851919E0,-8.0466187E-1,-2.294936E-1,-1.310395E0,1.1294584E0,2.402672E0,2.2369234E-1,2.2053316E0,3.1135147E0,5.9712553E0,-2.6140526E-1,-1.3717881E-1,-2.641581E-1,-1.8605404E-1,-1.5949401E-1,-7.914098E-2,-6.40989E-2,3.4046527E-2,-8.163541E-2,-2.5531769E-2,6.8325326E-3,1.12291075E-1,1.1203431E-1,1.836534E-1,-4.046504E-2,1.13002E-1,9.4862334E-2,1.8466373E-1,9.703573E-2,3.008129E-1],"categories":[],"categories_nodes":[],"categories_segments":[],"categories_sizes":[],"default_left":[0,0,0,0,0,0,0,0,0,0,0,0,0,0,0,0,0,0,0,0,0,0,0,0,0,0,0,0,0,0,0,0,0,0,0,0,0,0,0,0,0,0,0,0,0,0,0,0,0,0,0],"id":17,"left_children":[1,3,5,7,9,11,13,15,17,19,21,23,25,27,29,-1,-1,-1,31,-1,33,35,37,-1,39,41,43,-1,45,47,49,-1,-1,-1,-1,-1,-1,-1,-1,-1,-1,-1,-1,-1,-1,-1,-1,-1,-1,-1,-1],"loss_changes":[9.715625E3,1.5089302E3,2.1556084E3,2.708911E2,7.44354E2,1.2350487E3,6.705449E2,6.2492188E1,3.4094604E1,5.9190186E1,6.46358E1,6.028125E1,5.737848E1,4.636029E1,2.0931006E2,0E0,0E0,0E0,2.0089111E0,0E0,2.8653564E1,4.8208252E1,4.2709675E1,0E0,4.272992E1,5.400146E1,2.7370789E1,0E0,2.2774658E1,1.9083252E1,1.335498E1,0E0,0E0,0E0,0E0,0E0,0E0,0E0,0E0,0E0,0E0,0E0,0E0,0E0,0E0,0E0,0E0,0E0,0E0,0E0,0E0],"parents":[2147483647,0,0,1,1,2,2,3,3,4,4,5,5,6,6,7,7,8,8,9,9,10,10,11,11,12,12,13,13,14,14,18,18,20,20,21,21,22,22,24,24,25,25,26,26,28,28,29,29,30,30],"right_children":[2,4,6,8,10,12,14,16,18,20,22,24,26,28,30,-1,-1,-1,32,-1,34,36,38,-1,40,42,44,-1,46,48,50,-1,-1,-1,-1,-1,-1,-1,-1,-1,-1,-1,-1,-1,-1,-1,-1,-1,-1,-1,-1],"split_conditions":[-3.5E0,-1.2E1,4.75E0,8.0083336E1,8.0583336E1,8.1333336E1,6.98E0,-1.85E1,-1.675E1,7.4083336E1,8.375E1,7.2333336E1,-1E0,2.51E1,6.47E0,-6.200696E-1,-4.1947278E-1,-3.982572E-1,8.48E1,-3.4654298E-1,-7.25E0,-6.8333335E0,-6.6666665E0,-2.294936E-1,1.75E0,8.3583336E1,7.01E0,2.2369234E-1,7E1,7.7666664E1,-6.666667E-1,-2.6140526E-1,-1.3717881E-1,-2.641581E-1,-1.8605404E-1,-1.5949401E-1,-7.914098E-2,-6.40989E-2,3.4046527E-2,-8.163541E-2,-2.5531769E-2,6.8325326E-3,1.12291075E-1,1.1203431E-1,1.836534E-1,-4.046504E-2,1.13002E-1,9.4862334E-2,1.8466373E-1,9.703573E-2,3.008129E-1],"split_indices":[11,11,11,8,8,8,1,11,11,8,8,8,11,0,2,0,0,0,7,0,11,11,11,0,11,8,1,0,6,8,13,0,0,0,0,0,0,0,0,0,0,0,0,0,0,0,0,0,0,0,0],"split_type":[0,0,0,0,0,0,0,0,0,0,0,0,0,0,0,0,0,0,0,0,0,0,0,0,0,0,0,0,0,0,0,0,0,0,0,0,0,0,0,0,0,0,0,0,0,0,0,0,0,0,0],"sum_hessian":[1.038E3,3.36E2,7.02E2,8.9E1,2.47E2,3.93E2,3.09E2,4.7E1,4.2E1,1.02E2,1.45E2,1.73E2,2.2E2,1.36E2,1.73E2,1.2E1,3.5E1,9E0,3.3E1,2E1,8.2E1,8.7E1,5.8E1,5E0,1.68E2,4.8E1,1.72E2,1E1,1.26E2,3.6E1,1.37E2,2.9E1,4E0,4.7E1,3.5E1,3.1E1,5.6E1,4.4E1,1.4E1,1.19E2,4.9E1,2.6E1,2.2E1,1.55E2,1.7E1,2E0,1.24E2,1.3E1,2.3E1,2E0,1.35E2],"tree_param":{"num_deleted":"0","num_feature":"14","num_nodes":"51","size_leaf_vector":"1"}},{"base_weights":[-8.996498E-2,-3.346358E0,2.396487E0,-6.57335E0,-2.0231209E0,1.1128291E0,4.172558E0,-1.0762777E1,-5.8107615E0,-4.56012E0,-1.2742248E0,-1.3662804E0,2.1590655E0,2.2385604E0,5.203733E0,-1.4126377E-1,-5.523395E-1,-3.9139515E-1,-4.7660217E0,-4.7368803E0,-1.2659183E-1,-1.5392262E0,1.4081471E0,7.452278E-1,-1.437078E0,2.028432E0,4.999984E0,2.3092687E0,-2.6729712E-2,2.6414309E0,5.677647E0,-2.614173E-1,-1.53977E-1,-2.4824052E-1,-1.4819947E-1,-1.0921655E-1,-5.310067E-2,-3.4294606E-3,1.029253E-1,4.5989737E-2,5.5381777E-3,-9.706076E-2,-5.7989914E-2,4.222844E-2,1.0705929E-1,1.2602416E-1,2.851279E-1,1.9541119E-1,1.0702471E-1,1.7456926E-2,1.639873E-1,3.8018037E-2,2.8543344E-1],"categories":[],"categories_nodes":[],"categories_segments":[],"categories_sizes":[],"default_left":[0,0,0,0,0,0,0,0,0,0,0,0,0,0,0,0,0,0,0,0,0,0,0,0,0,0,0,0,0,0,0,0,0,0,0,0,0,0,0,0,0,0,0,0,0,0,0,0,0,0,0,0,0],"id":18,"left_children":[1,3,5,7,9,11,13,15,17,19,21,23,25,27,29,-1,-1,-1,31,33,-1,35,37,39,41,43,45,47,-1,49,51,-1,-1,-1,-1,-1,-1,-1,-1,-1,-1,-1,-1,-1,-1,-1,-1,-1,-1,-1,-1,-1,-1],"loss_changes":[8.45305E3,1.9167749E3,1.3450381E3,3.5597998E2,6.0597314E2,8.9778845E2,4.8293506E2,1.1622314E1,2.008269E2,1.4178955E1,1.7987555E2,1.6468353E1,8.0039795E1,1.848996E1,1.8050732E2,0E0,0E0,0E0,4.3936035E1,1.195459E1,0E0,6.787048E1,2.2230587E1,3.4114623E-1,1.1727295E1,2.9427124E1,3.0471497E0,1.4842651E1,0E0,3.8361435E1,1.6252441E1,0E0,0E0,0E0,0E0,0E0,0E0,0E0,0E0,0E0,0E0,0E0,0E0,0E0,0E0,0E0,0E0,0E0,0E0,0E0,0E0,0E0,0E0],"parents":[2147483647,0,0,1,1,2,2,3,3,4,4,5,5,6,6,7,7,8,8,9,9,10,10,11,11,12,12,13,13,14,14,18,18,19,19,21,21,22,22,23,23,24,24,25,25,26,26,27,27,29,29,30,30],"right_children":[2,4,6,8,10,12,14,16,18,20,22,24,26,28,30,-1,-1,-1,32,34,-1,36,38,40,42,44,46,48,-1,50,52,-1,-1,-1,-1,-1,-1,-1,-1,-1,-1,-1,-1,-1,-1,-1,-1,-1,-1,-1,-1,-1,-1],"split_conditions":[-1E0,-1.0083333E1,6.25E0,-1.85E1,7.8083336E1,7.8916664E1,6.98E0,2.54E1,7.8083336E1,3.004E1,8.6583336E1,2.57E1,8.7166664E1,3E1,6.49E0,-1.4126377E-1,-5.523395E-1,-3.9139515E-1,8.3583336E1,6.95E0,-1.2659183E-1,-5.5E0,-6.25E0,2.54E1,7.5166664E1,6.05E0,1.25E0,2.51E1,-2.6729712E-2,7.7666664E1,-1.3333334E0,-2.614173E-1,-1.53977E-1,-2.4824052E-1,-1.4819947E-1,-1.0921655E-1,-5.310067E-2,-3.4294606E-3,1.029253E-1,4.5989737E-2,5.5381777E-3,-9.706076E-2,-5.7989914E-2,4.222844E-2,1.0705929E-1,1.2602416E-1,2.851279E-1,1.9541119E-1,1.0702471E-1,1.7456926E-2,1.639873E-1,3.8018037E-2,2.8543344E-1],"split_indices":[11,11,11,11,8,8,1,0,8,0,8,0,8,0,2,0,0,0,8,1,0,11,11,0,8,2,11,0,0,8,13,0,0,0,0,0,0,0,0,0,0,0,0,0,0,0,0,0,0,0,0,0,0],"split_type":[0,0,0,0,0,0,0,0,0,0,0,0,0,0,0,0,0,0,0,0,0,0,0,0,0,0,0,0,0,0,0,0,0,0,0,0,0,0,0,0,0,0,0,0,0,0,0,0,0,0,0,0,0],"sum_hessian":[1.042E3,4.51E2,5.91E2,1.3E2,3.21E2,3.44E2,2.47E2,1.8E1,1.12E2,7.2E1,2.49E2,1.02E2,2.42E2,8.7E1,1.6E2,1E0,1.7E1,3.6E1,7.6E1,6.5E1,7E0,2.27E2,2.2E1,3E0,9.9E1,2.33E2,9E0,8.5E1,2E0,2.6E1,1.34E2,5.8E1,1.8E1,5.6E1,9E0,9.5E1,1.32E2,7E0,1.5E1,2E0,1E0,3.3E1,6.6E1,2.1E1,2.12E2,3E0,6E0,6E0,7.9E1,6E0,2E1,1E0,1.33E2],"tree_param":{"num_deleted":"0","num_feature":"14","num_nodes":"53","size_leaf_vector":"1"}},{"base_weights":[-1.3394139E-2,-2.9187603E0,2.5919857E0,-5.5811744E0,-1.5214317E0,1.3754462E0,4.35391E0,-6.5721555E0,-3.1400192E0,-2.4861615E0,-1.381016E-1,-1.3101305E0,1.9095019E0,5.011409E-1,5.0851192E0,-8.450873E0,-5.3732805E0,-4.6068974E0,-2.0450368E0,-4.060889E0,-1.8565109E0,-1.1162388E0,1.2199851E0,4.541677E-2,-1.4109845E0,-2.8392297E-1,2.0466287E0,-7.275216E-2,9.266941E-1,1.7860822E-1,5.348116E0,-5.0645757E-1,-3.637048E-1,-3.3436224E-1,-2.3570621E-1,-2.3624082E-1,-5.6213E-2,-1.3272515E-1,-6.0898643E-2,-2.5294176E-1,-1.7925684E-1,-1.9964796E-1,-7.319448E-2,-6.578132E-2,1.9554902E-2,2.2494262E-2,1.0294946E-1,-7.187068E-2,-9.168625E-4,2.3114986E-3,-3.8108718E-2,1.0574126E-1,-3.5040937E-2,1.3437882E-1,3.8920607E-2,1.1993714E-1,2.7141494E-1],"categories":[],"categories_nodes":[],"categories_segments":[],"categories_sizes":[],"default_left":[0,0,0,0,0,0,0,0,0,0,0,0,0,0,0,0,0,0,0,0,0,0,0,0,0,0,0,0,0,0,0,0,0,0,0,0,0,0,0,0,0,0,0,0,0,0,0,0,0,0,0,0,0,0,0,0,0],"id":19,"left_children":[1,3,5,7,9,11,13,15,17,19,21,23,25,27,29,31,33,35,37,39,41,43,45,-1,47,49,51,-1,53,-1,55,-1,-1,-1,-1,-1,-1,-1,-1,-1,-1,-1,-1,-1,-1,-1,-1,-1,-1,-1,-1,-1,-1,-1,-1,-1,-1],"loss_changes":[7.9253486E3,1.833041E3,1.1771956E3,3.906167E2,4.347166E2,4.7293494E2,6.313174E2,2.2487256E2,7.249521E1,1.8283423E2,1.8069514E2,1.3587425E1,8.299408E1,3.2149414E1,5.609961E1,1.5192871E1,3.429956E1,3.3121033E0,1.2392975E1,7.5012207E0,1.1074997E2,2.4257538E1,3.5902367E1,0E0,1.9243698E0,2.719469E0,4.982251E1,0E0,6.0022736E0,0E0,2.4580566E1,0E0,0E0,0E0,0E0,0E0,0E0,0E0,0E0,0E0,0E0,0E0,0E0,0E0,0E0,0E0,0E0,0E0,0E0,0E0,0E0,0E0,0E0,0E0,0E0,0E0,0E0],"parents":[2147483647,0,0,1,1,2,2,3,3,4,4,5,5,6,6,7,7,8,8,9,9,10,10,11,11,12,12,13,13,14,14,15,15,16,16,17,17,18,18,19,19,20,20,21,21,22,22,24,24,25,25,26,26,28,28,30,30],"right_children":[2,4,6,8,10,12,14,16,18,20,22,24,26,28,30,32,34,36,38,40,42,44,46,-1,48,50,52,-1,54,-1,56,-1,-1,-1,-1,-1,-1,-1,-1,-1,-1,-1,-1,-1,-1,-1,-1,-1,-1,-1,-1,-1,-1,-1,-1,-1,-1],"split_conditions":[-8.3333336E-2,-8.5E0,6.99E0,8.1583336E1,8.1833336E1,6.01E0,5.99E0,-1.4E1,-1.35E1,-4.75E0,-4.75E0,2.36E1,6.5E0,5.47E0,6.49E0,-1.85E1,7.6083336E1,8.3333336E1,6.5E0,7.6E1,7.5833336E1,8.5583336E1,8.48E1,4.541677E-2,8.4E1,7.875E1,3.004E1,-7.275216E-2,2.51E1,1.7860822E-1,-6.666667E-1,-5.0645757E-1,-3.637048E-1,-3.3436224E-1,-2.3570621E-1,-2.3624082E-1,-5.6213E-2,-1.3272515E-1,-6.0898643E-2,-2.5294176E-1,-1.7925684E-1,-1.9964796E-1,-7.319448E-2,-6.578132E-2,1.9554902E-2,2.2494262E-2,1.0294946E-1,-7.187068E-2,-9.168625E-4,2.3114986E-3,-3.8108718E-2,1.0574126E-1,-3.5040937E-2,1.3437882E-1,3.8920607E-2,1.1993714E-1,2.7141494E-1],"split_indices":[11,11,1,8,8,1,2,11,11,11,11,0,2,2,2,11,8,6,2,8,8,8,8,0,6,8,0,0,0,0,13,0,0,0,0,0,0,0,0,0,0,0,0,0,0,0,0,0,0,0,0,0,0,0,0,0,0],"split_type":[0,0,0,0,0,0,0,0,0,0,0,0,0,0,0,0,0,0,0,0,0,0,0,0,0,0,0,0,0,0,0,0,0,0,0,0,0,0,0,0,0,0,0,0,0,0,0,0,0,0,0,0,0,0,0,0,0],"sum_hessian":[1.045E3,4.94E2,5.51E2,1.69E2,3.25E2,3.27E2,2.24E2,1.19E2,5E1,1.91E2,1.34E2,5.4E1,2.73E2,3.6E1,1.88E2,4.4E1,7.5E1,2E1,3E1,5.3E1,1.38E2,7.8E1,5.6E1,2E0,5.2E1,1.6E1,2.57E2,6E0,3E1,3E1,1.58E2,1.5E1,2.9E1,2.2E1,5.3E1,1.9E1,1E0,1.6E1,1.4E1,1.4E1,3.9E1,2E1,1.18E2,6.9E1,9E0,3E1,2.6E1,5.1E1,1E0,1E1,6E0,2.51E2,6E0,1E0,2.9E1,5E0,1.53E2],"tree_param":{"num_deleted":"0","num_feature":"14","num_nodes":"57","size_leaf_vector":"1"}},{"base_weights":[-7.325652E-2,-3.006354E0,2.2978768E0,-6.021339E0,-1.763841E0,8.056103E-1,3.548416E0,-8.260992E0,-4.7312856E0,-4.116843E0,-1.137425E0,-1.0287586E0,2.0119193E0,2.0808141E0,4.627244E0,-5.4931086E-1,-3.6273584E-1,-3.4882766E-1,-3.877158E0,-3.2154167E0,-4.4976563E0,-1.4212813E0,1.2855638E0,-1.3207835E0,6.9799006E-2,2.940516E-2,2.0639114E0,1.9984303E-1,1.910884E0,2.613905E0,5.1334386E0,-2.1803354E-1,-1.1134972E-1,-1.8460844E-1,-1.0893734E-1,-2.313679E-1,-9.894743E-2,-1.0263266E-1,-4.8522945E-2,-8.5612405E-3,9.384203E-2,-1.476892E-1,-6.21998E-2,-5.0983395E-2,4.2150196E-2,9.463339E-2,1.881241E-1,-4.5342635E-2,9.704605E-2,6.975896E-2,1.5293749E-1,7.948103E-2,2.5992438E-1],"categories":[],"categories_nodes":[],"categories_segments":[],"categories_sizes":[],"default_left":[0,0,0,0,0,0,0,0,0,0,0,0,0,0,0,0,0,0,0,0,0,0,0,0,0,0,0,0,0,0,0,0,0,0,0,0,0,0,0,0,0,0,0,0,0,0,0,0,0,0,0,0,0],"id":20,"left_children":[1,3,5,7,9,11,13,15,17,19,21,23,25,27,29,-1,-1,-1,31,33,35,37,39,41,43,-1,45,-1,47,49,51,-1,-1,-1,-1,-1,-1,-1,-1,-1,-1,-1,-1,-1,-1,-1,-1,-1,-1,-1,-1,-1,-1],"loss_changes":[7.219E3,1.7275962E3,1.0683042E3,3.509668E2,4.8172375E2,5.840403E2,4.8435815E2,5.1929688E1,1.4171252E2,9.224243E0,1.8202573E2,3.3776855E1,1.055658E1,3.5992065E1,1.6900781E2,0E0,0E0,0E0,4.2948486E1,3.817337E0,5.869995E0,6.489755E1,2.4439587E1,6.7332E0,2.0234352E1,0E0,3.7381897E1,0E0,1.2339691E1,1.6333923E1,2.4470703E1,0E0,0E0,0E0,0E0,0E0,0E0,0E0,0E0,0E0,0E0,0E0,0E0,0E0,0E0,0E0,0E0,0E0,0E0,0E0,0E0,0E0,0E0],"parents":[2147483647,0,0,1,1,2,2,3,3,4,4,5,5,6,6,7,7,8,8,9,9,10,10,11,11,12,12,13,13,14,14,18,18,19,19,20,20,21,21,22,22,23,23,24,24,26,26,28,28,29,29,30,30],"right_children":[2,4,6,8,10,12,14,16,18,20,22,24,26,28,30,-1,-1,-1,32,34,36,38,40,42,44,-1,46,-1,48,50,52,-1,-1,-1,-1,-1,-1,-1,-1,-1,-1,-1,-1,-1,-1,-1,-1,-1,-1,-1,-1,-1,-1],"split_conditions":[-1E0,-1.0083333E1,4.5E0,7.8083336E1,7.8083336E1,8.1333336E1,6.99E0,-1.85E1,-1.5833333E1,1.047E3,8.6083336E1,7.8083336E1,5.7E0,2.51E1,6.49E0,-5.4931086E-1,-3.6273584E-1,-3.4882766E-1,8.3916664E1,-4.1666665E0,6.67E0,-5.5E0,-6.25E0,7.2333336E1,7.5E-1,2.940516E-2,7.01E0,1.9984303E-1,6.01E0,5.951E0,-6.666667E-1,-2.1803354E-1,-1.1134972E-1,-1.8460844E-1,-1.0893734E-1,-2.313679E-1,-9.894743E-2,-1.0263266E-1,-4.8522945E-2,-8.5612405E-3,9.384203E-2,-1.476892E-1,-6.21998E-2,-5.0983395E-2,4.2150196E-2,9.463339E-2,1.881241E-1,-4.5342635E-2,9.704605E-2,6.975896E-2,1.5293749E-1,7.948103E-2,2.5992438E-1],"split_indices":[11,11,11,8,8,8,1,11,11,5,8,8,2,0,2,0,0,0,8,11,1,11,11,8,11,0,1,0,1,2,13,0,0,0,0,0,0,0,0,0,0,0,0,0,0,0,0,0,0,0,0,0,0],"split_type":[0,0,0,0,0,0,0,0,0,0,0,0,0,0,0,0,0,0,0,0,0,0,0,0,0,0,0,0,0,0,0,0,0,0,0,0,0,0,0,0,0,0,0,0,0,0,0,0,0,0,0,0,0],"sum_hessian":[1.036E3,4.63E2,5.73E2,1.34E2,3.29E2,2.62E2,3.11E2,4.7E1,8.7E1,6.8E1,2.61E2,1.04E2,1.58E2,1.33E2,1.78E2,1E1,3.7E1,2.2E1,6.5E1,2.3E1,4.5E1,2.34E2,2.7E1,8.2E1,2.2E1,6E0,1.52E2,9E0,1.24E2,3.7E1,1.41E2,4.9E1,1.6E1,1.4E1,9E0,4.2E1,3E0,9.6E1,1.38E2,8E0,1.9E1,2E0,8E1,9E0,1.3E1,1.4E2,1.2E1,1E0,1.23E2,1.1E1,2.6E1,3E0,1.38E2],"tree_param":{"num_deleted":"0","num_feature":"14","num_nodes":"53","size_leaf_vector":"1"}},{"base_weights":[4.5014985E-2,-3.0174367E0,2.0615559E0,-5.3361998E0,-1.5158839E0,1.0865511E0,3.882872E0,-7.119502E0,-4.171734E0,-3.017613E0,-7.466192E-1,-1.2260058E0,1.6775954E0,2.650528E-1,4.6172023E0,-4.7374126E-1,-6.071502E0,-4.7615504E0,-2.1547356E0,-4.3393717E0,-2.3385763E0,-1.0065792E0,1.2902632E0,4.2497765E-2,-1.2885293E0,-9.216359E-1,1.9113894E0,-6.7313194E-2,6.859022E-1,2.9588153E0,4.9221644E0,-3.553236E-1,-2.5209263E-1,-3.067706E-1,-2.0752059E-1,-1.2517215E-1,-4.7512002E-2,-2.210253E-1,-5.5747032E-2,-1.7178635E-1,-7.182678E-2,-5.7100922E-2,3.004974E-2,1.8567191E-2,9.624048E-2,-6.5192685E-2,-1.9477844E-3,-1.3523506E-1,-1.4169675E-2,1.9085003E-1,9.187801E-2,4.1068323E-2,-4.0353265E-2,1.5359382E-1,-7.999039E-3,2.4680987E-1,7.148361E-2],"categories":[],"categories_nodes":[],"categories_segments":[],"categories_sizes":[],"default_left":[0,0,0,0,0,0,0,0,0,0,0,0,0,0,0,0,0,0,0,0,0,0,0,0,0,0,0,0,0,0,0,0,0,0,0,0,0,0,0,0,0,0,0,0,0,0,0,0,0,0,0,0,0,0,0,0,0],"id":21,"left_children":[1,3,5,7,9,11,13,15,17,19,21,23,25,27,29,-1,31,33,35,37,39,41,43,-1,45,47,49,-1,51,53,55,-1,-1,-1,-1,-1,-1,-1,-1,-1,-1,-1,-1,-1,-1,-1,-1,-1,-1,-1,-1,-1,-1,-1,-1,-1,-1],"loss_changes":[6.2682373E3,1.395054E3,1.0825654E3,2.9840137E2,2.8193286E2,5.4878613E2,5.6464795E2,9.304468E1,1.0632666E2,6.4346436E1,8.813802E1,1.173848E1,1.9561298E2,2.6013905E1,7.495288E1,0E0,1.2124756E1,3.7506958E1,7.701523E0,2.1349182E0,5.147592E1,3.2474747E1,1.03640785E1,0E0,1.4811249E0,2.996026E1,3.4208252E1,0E0,6.7302103E0,1.1069885E1,1.965332E-1,0E0,0E0,0E0,0E0,0E0,0E0,0E0,0E0,0E0,0E0,0E0,0E0,0E0,0E0,0E0,0E0,0E0,0E0,0E0,0E0,0E0,0E0,0E0,0E0,0E0,0E0],"parents":[2147483647,0,0,1,1,2,2,3,3,4,4,5,5,6,6,7,7,8,8,9,9,10,10,11,11,12,12,13,13,14,14,16,16,17,17,18,18,19,19,20,20,21,21,22,22,24,24,25,25,26,26,28,28,29,29,30,30],"right_children":[2,4,6,8,10,12,14,16,18,20,22,24,26,28,30,-1,32,34,36,38,40,42,44,-1,46,48,50,-1,52,54,56,-1,-1,-1,-1,-1,-1,-1,-1,-1,-1,-1,-1,-1,-1,-1,-1,-1,-1,-1,-1,-1,-1,-1,-1,-1,-1],"split_conditions":[-1.5833334E0,-8.5E0,7.01E0,-1.4E1,8E1,6.01E0,5.99E0,7.6083336E1,8.2083336E1,7.5833336E1,8.5583336E1,2.36E1,6.5E0,5.47E0,6.49E0,-4.7374126E-1,-1.675E1,7.6583336E1,7.11E0,7.8666664E1,-4.75E0,-2.75E0,-5.75E0,4.2497765E-2,8.3666664E1,5.951E0,2.51E1,-6.7313194E-2,3E1,3E1,3.077E1,-3.553236E-1,-2.5209263E-1,-3.067706E-1,-2.0752059E-1,-1.2517215E-1,-4.7512002E-2,-2.210253E-1,-5.5747032E-2,-1.7178635E-1,-7.182678E-2,-5.7100922E-2,3.004974E-2,1.8567191E-2,9.624048E-2,-6.5192685E-2,-1.9477844E-3,-1.3523506E-1,-1.4169675E-2,1.9085003E-1,9.187801E-2,4.1068323E-2,-4.0353265E-2,1.5359382E-1,-7.999039E-3,2.4680987E-1,7.148361E-2],"split_indices":[11,11,1,11,8,1,2,8,8,8,8,0,2,2,2,0,11,8,2,7,11,11,11,0,6,2,0,0,0,0,0,0,0,0,0,0,0,0,0,0,0,0,0,0,0,0,0,0,0,0,0,0,0,0,0,0,0],"split_type":[0,0,0,0,0,0,0,0,0,0,0,0,0,0,0,0,0,0,0,0,0,0,0,0,0,0,0,0,0,0,0,0,0,0,0,0,0,0,0,0,0,0,0,0,0,0,0,0,0,0,0,0,0,0,0,0,0],"sum_hessian":[1.013E3,4.02E2,6.11E2,1.57E2,2.45E2,3.99E2,2.12E2,6E1,9.7E1,8.2E1,1.63E2,8.1E1,3.18E2,3.6E1,1.76E2,1.6E1,4.4E1,7.4E1,2.3E1,2.6E1,5.6E1,1.45E2,1.8E1,2E0,7.9E1,2.6E1,2.92E2,7E0,2.9E1,2.9E1,1.47E2,1.9E1,2.5E1,2E1,5.4E1,1.7E1,6E0,2.5E1,1E0,2.4E1,3.2E1,1.34E2,1.1E1,8E0,1E1,7.8E1,1E0,6E0,2E1,9E0,2.83E2,2.7E1,2E0,2.8E1,1E0,1.46E2,1E0],"tree_param":{"num_deleted":"0","num_feature":"14","num_nodes":"57","size_leaf_vector":"1"}},{"base_weights":[-7.112726E-3,-3.014892E0,1.9638503E0,-4.9621105E0,-1.5728784E0,6.173471E-1,3.1713042E0,-7.3507576E0,-4.17664E0,-3.320744E0,-9.879403E-1,-9.759619E-1,1.7504836E0,1.7813784E0,4.245964E0,-4.480805E-1,-2.9181683E-1,-6.1224885E0,-3.6125977E0,-3.9638271E0,-2.4901612E0,-1.606477E0,-3.0684248E-1,-1.2133119E0,-6.5115355E-3,1.6239408E0,2.3141096E0,-5.9358597E-2,1.85347E0,2.44846E0,2.3438756E-1,-3.3788413E-1,-2.1516858E-1,-1.9872287E-1,-8.31455E-2,-2.0150259E-1,-4.9427222E-2,-1.4576754E-1,-7.166424E-2,-1.3975778E-1,-6.1873347E-2,-4.5176256E-2,4.3826412E-2,-8.2452424E-2,-5.1652957E-2,-4.1404344E-2,4.0778235E-2,1.2448433E-2,8.627251E-2,8.828089E-2,1.892855E-1,1.7328759E-1,8.647501E-2,1.4710538E-1,7.929065E-2],"categories":[],"categories_nodes":[],"categories_segments":[],"categories_sizes":[],"default_left":[0,0,0,0,0,0,0,0,0,0,0,0,0,0,0,0,0,0,0,0,0,0,0,0,0,0,0,0,0,0,0,0,0,0,0,0,0,0,0,0,0,0,0,0,0,0,0,0,0,0,0,0,0,0,0],"id":22,"left_children":[1,3,5,7,9,11,13,15,17,19,21,23,25,27,29,-1,-1,31,33,35,37,39,41,43,45,47,49,-1,51,53,-1,-1,-1,-1,-1,-1,-1,-1,-1,-1,-1,-1,-1,-1,-1,-1,-1,-1,-1,-1,-1,-1,-1,-1,-1],"loss_changes":[6.0349224E3,1.1237852E3,9.979343E2,2.9013086E2,2.3493689E2,5.288959E2,4.763943E2,4.771704E1,1.2165991E2,2.1109192E1,7.3653046E1,2.8064163E1,8.438293E0,3.2803436E1,1.3305103E2,0E0,0E0,3.2728271E0,6.676428E1,2.124237E0,8.403915E0,3.689543E1,6.0810196E1,5.993622E0,1.7560295E1,1.9529297E1,1.6723557E1,0E0,2.1988373E1,1.1516418E1,0E0,0E0,0E0,0E0,0E0,0E0,0E0,0E0,0E0,0E0,0E0,0E0,0E0,0E0,0E0,0E0,0E0,0E0,0E0,0E0,0E0,0E0,0E0,0E0,0E0],"parents":[2147483647,0,0,1,1,2,2,3,3,4,4,5,5,6,6,7,7,8,8,9,9,10,10,11,11,12,12,13,13,14,14,17,17,18,18,19,19,20,20,21,21,22,22,23,23,24,24,25,25,26,26,28,28,29,29],"right_children":[2,4,6,8,10,12,14,16,18,20,22,24,26,28,30,-1,-1,32,34,36,38,40,42,44,46,48,50,-1,52,54,-1,-1,-1,-1,-1,-1,-1,-1,-1,-1,-1,-1,-1,-1,-1,-1,-1,-1,-1,-1,-1,-1,-1,-1,-1],"split_conditions":[-2E0,-8.5E0,4.5E0,7.6083336E1,7.9083336E1,8.1583336E1,7.01E0,-1.4E1,-1.55E1,7.6083336E1,8.275E1,7.9083336E1,8.625E1,6.01E0,6.49E0,-4.480805E-1,-2.9181683E-1,8.0833336E1,8.3333336E1,7.8333336E1,-4.1666665E0,-5.5E0,-5.5833335E0,7.525E1,6.75E0,-2.5E-1,1.25E0,-5.9358597E-2,2.51E1,8.17E2,2.3438756E-1,-3.3788413E-1,-2.1516858E-1,-1.9872287E-1,-8.31455E-2,-2.0150259E-1,-4.9427222E-2,-1.4576754E-1,-7.166424E-2,-1.3975778E-1,-6.1873347E-2,-4.5176256E-2,4.3826412E-2,-8.2452424E-2,-5.1652957E-2,-4.1404344E-2,4.0778235E-2,1.2448433E-2,8.627251E-2,8.828089E-2,1.892855E-1,1.7328759E-1,8.647501E-2,1.4710538E-1,7.929065E-2],"split_indices":[11,11,11,8,8,8,1,11,11,8,8,8,8,1,2,0,0,8,8,6,11,11,11,8,1,11,11,0,0,5,0,0,0,0,0,0,0,0,0,0,0,0,0,0,0,0,0,0,0,0,0,0,0,0,0],"split_type":[0,0,0,0,0,0,0,0,0,0,0,0,0,0,0,0,0,0,0,0,0,0,0,0,0,0,0,0,0,0,0,0,0,0,0,0,0,0,0,0,0,0,0,0,0,0,0,0,0,0,0,0,0,0,0],"sum_hessian":[1.016E3,4.02E2,6.14E2,1.7E2,2.32E2,2.91E2,3.23E2,4E1,1.3E2,5.7E1,1.75E2,1.21E2,1.7E2,1.42E2,1.81E2,1.7E1,2.3E1,2.7E1,1.03E2,3E1,2.7E1,9.1E1,8.4E1,9.7E1,2.4E1,1.42E2,2.8E1,3E0,1.39E2,3.7E1,1.44E2,1.8E1,9E0,8.6E1,1.7E1,2.9E1,1E0,1.8E1,9E0,2E1,7.1E1,5.6E1,2.8E1,2.6E1,7.1E1,1.2E1,1.2E1,1E1,1.32E2,2.2E1,6E0,8E0,1.31E2,2.2E1,1.5E1],"tree_param":{"num_deleted":"0","num_feature":"14","num_nodes":"55","size_leaf_vector":"1"}},{"base_weights":[1.5326128E-2,-2.2550173E0,2.1471546E0,-4.372874E0,-1.1578621E0,1.2488937E0,3.6366286E0,-5.363092E0,-2.802645E0,-1.9035993E0,2.359881E-1,-1.0034338E0,1.6238599E0,4.6753824E-1,4.141011E0,-6.974279E0,-4.3451905E0,-3.8852375E0,-1.7023454E0,-3.6444256E0,-1.5526571E0,-7.753443E-1,1.2604619E0,6.334038E-1,-5.619769E-2,-1.8173654E-1,1.708948E0,-5.7636645E-2,8.531253E-1,2.811007E0,4.4189773E0,-3.9189652E-1,-2.8263247E-1,-2.5246102E-1,-1.87187E-1,-2.0398445E-1,-9.7074054E-2,-1.0850667E-1,-3.538936E-2,-2.1428812E-1,-1.422516E-1,-1.4871381E-1,-6.1113745E-2,-4.7099844E-2,2.128234E-2,2.8701935E-2,8.5737556E-2,4.280294E-2,-8.6402893E-4,-8.727455E-2,3.6410408E-3,8.7428175E-2,-4.018814E-2,1.2457123E-1,3.3678602E-2,1.4372349E-1,1.9504929E-2,6.382065E-2,2.2160597E-1],"categories":[],"categories_nodes":[],"categories_segments":[],"categories_sizes":[],"default_left":[0,0,0,0,0,0,0,0,0,0,0,0,0,0,0,0,0,0,0,0,0,0,0,0,0,0,0,0,0,0,0,0,0,0,0,0,0,0,0,0,0,0,0,0,0,0,0,0,0,0,0,0,0,0,0,0,0,0,0],"id":23,"left_children":[1,3,5,7,9,11,13,15,17,19,21,23,25,27,29,31,33,35,37,39,41,43,45,47,-1,49,51,-1,53,55,57,-1,-1,-1,-1,-1,-1,-1,-1,-1,-1,-1,-1,-1,-1,-1,-1,-1,-1,-1,-1,-1,-1,-1,-1,-1,-1,-1,-1],"loss_changes":[5.0771436E3,1.1753345E3,7.1928174E2,2.5396167E2,3.4970303E2,2.8793073E2,3.2254614E2,1.418982E2,7.557721E1,1.2813501E2,1.2323516E2,1.0378223E1,4.501831E1,1.9101334E1,5.2274902E1,2.1069336E-1,9.467529E0,4.930237E0,1.5212738E1,6.2633667E0,8.278531E1,1.2409851E1,1.7413902E1,5.9430575E-1,0E0,5.700021E0,2.9078064E1,0E0,5.381731E0,3.9487E0,2.487793E-1,0E0,0E0,0E0,0E0,0E0,0E0,0E0,0E0,0E0,0E0,0E0,0E0,0E0,0E0,0E0,0E0,0E0,0E0,0E0,0E0,0E0,0E0,0E0,0E0,0E0,0E0,0E0,0E0],"parents":[2147483647,0,0,1,1,2,2,3,3,4,4,5,5,6,6,7,7,8,8,9,9,10,10,11,11,12,12,13,13,14,14,15,15,16,16,17,17,18,18,19,19,20,20,21,21,22,22,23,23,25,25,26,26,28,28,29,29,30,30],"right_children":[2,4,6,8,10,12,14,16,18,20,22,24,26,28,30,32,34,36,38,40,42,44,46,48,-1,50,52,-1,54,56,58,-1,-1,-1,-1,-1,-1,-1,-1,-1,-1,-1,-1,-1,-1,-1,-1,-1,-1,-1,-1,-1,-1,-1,-1,-1,-1,-1,-1],"split_conditions":[2.5E-1,-8.5E0,7.01E0,8.1333336E1,8.2833336E1,5.99E0,5.99E0,-1.4E1,-1.325E1,7.6E1,-5.4166665E0,2.4E1,6.5E0,5.47E0,6.49E0,7.7916664E1,7.7333336E1,8.7E1,8.5833336E1,-3.75E0,-5.75E0,8.5583336E1,8.514286E1,2.36E1,-5.619769E-2,5.67E0,3.004E1,-5.7636645E-2,2.51E1,3E1,-1.6666667E-1,-3.9189652E-1,-2.8263247E-1,-2.5246102E-1,-1.87187E-1,-2.0398445E-1,-9.7074054E-2,-1.0850667E-1,-3.538936E-2,-2.1428812E-1,-1.422516E-1,-1.4871381E-1,-6.1113745E-2,-4.7099844E-2,2.128234E-2,2.8701935E-2,8.5737556E-2,4.280294E-2,-8.6402893E-4,-8.727455E-2,3.6410408E-3,8.7428175E-2,-4.018814E-2,1.2457123E-1,3.3678602E-2,1.4372349E-1,1.9504929E-2,6.382065E-2,2.2160597E-1],"split_indices":[11,11,1,8,8,1,2,11,11,8,11,0,2,2,2,8,8,8,8,11,11,8,8,0,0,2,0,0,0,0,10,0,0,0,0,0,0,0,0,0,0,0,0,0,0,0,0,0,0,0,0,0,0,0,0,0,0,0,0],"split_type":[0,0,0,0,0,0,0,0,0,0,0,0,0,0,0,0,0,0,0,0,0,0,0,0,0,0,0,0,0,0,0,0,0,0,0,0,0,0,0,0,0,0,0,0,0,0,0,0,0,0,0,0,0,0,0,0,0,0,0],"sum_hessian":[1.047E3,5.07E2,5.4E2,1.72E2,3.35E2,3.38E2,2.02E2,1.04E2,6.8E1,2.18E2,1.17E2,4.8E1,2.9E2,2.8E1,1.74E2,3.8E1,6.6E1,3.3E1,3.5E1,3.5E1,1.83E2,5.9E1,5.8E1,3E0,4.5E1,1.3E1,2.77E2,5E0,2.3E1,3.2E1,1.42E2,2E1,1.8E1,2.7E1,3.9E1,2.9E1,4E0,2.3E1,1.2E1,1.7E1,1.8E1,3.3E1,1.5E2,5.2E1,7E0,2.4E1,3.4E1,2E0,1E0,1E0,1.2E1,2.73E2,4E0,1E0,2.2E1,3.1E1,1E0,1E0,1.41E2],"tree_param":{"num_deleted":"0","num_feature":"14","num_nodes":"59","size_leaf_vector":"1"}},{"base_weights":[-3.3974634E-3,-2.5765786E0,1.7434256E0,-4.829602E0,-1.5297024E0,7.8172606E-1,3.044375E0,-8.607206E0,-4.1748657E0,-3.3909144E0,-9.191755E-1,-9.109923E-1,1.6007129E0,1.7230176E0,3.8379538E0,-1.0374317E-1,-8.854844E0,-4.867403E0,-2.6070282E0,-2.0013972E-1,-2.8306444E0,-1.0913899E0,1.7173947E0,-1.178118E0,-2.3623025E-1,1.5335987E0,4.018499E0,1.6253306E-1,1.5584238E0,2.039288E0,4.1726637E0,-4.545076E-1,-1.2136536E-1,-2.828787E-1,-2.046159E-1,-1.3827229E-1,8.149592E-3,-1.8894367E-1,-1.069124E-1,-7.162894E-2,-2.3134908E-2,1.0128728E-1,2.2004033E-2,-1.4676514E-1,-5.2755255E-2,-5.6212552E-2,2.853739E-2,2.4891911E-2,8.026795E-2,5.0852776E-2,2.2076881E-1,7.932468E-2,-2.6301384E-2,1.4453888E-3,1.1396887E-1,7.1015455E-2,2.1114671E-1],"categories":[],"categories_nodes":[],"categories_segments":[],"categories_sizes":[],"default_left":[0,0,0,0,0,0,0,0,0,0,0,0,0,0,0,0,0,0,0,0,0,0,0,0,0,0,0,0,0,0,0,0,0,0,0,0,0,0,0,0,0,0,0,0,0,0,0,0,0,0,0,0,0,0,0,0,0],"id":24,"left_children":[1,3,5,7,9,11,13,15,17,19,21,23,25,27,29,-1,31,33,35,-1,37,39,41,43,45,47,49,-1,51,53,55,-1,-1,-1,-1,-1,-1,-1,-1,-1,-1,-1,-1,-1,-1,-1,-1,-1,-1,-1,-1,-1,-1,-1,-1,-1,-1],"loss_changes":[4.746603E3,9.9974976E2,7.8457605E2,2.979663E2,3.298249E2,5.046902E2,2.7336353E2,1.2362793E1,1.1434766E2,1.3352417E1,1.0267462E2,2.1170998E1,3.3592896E1,2.0580994E1,9.142822E1,0E0,5.159546E0,2.5843262E1,1.7125916E1,0E0,1.8838379E1,4.4168198E1,4.6225624E0,1.52762375E1,2.5723127E1,1.7039185E1,2.6565475E0,0E0,6.3344574E0,1.3448891E1,1.3234131E1,0E0,0E0,0E0,0E0,0E0,0E0,0E0,0E0,0E0,0E0,0E0,0E0,0E0,0E0,0E0,0E0,0E0,0E0,0E0,0E0,0E0,0E0,0E0,0E0,0E0,0E0],"parents":[2147483647,0,0,1,1,2,2,3,3,4,4,5,5,6,6,7,7,8,8,9,9,10,10,11,11,12,12,13,13,14,14,16,16,17,17,18,18,20,20,21,21,22,22,23,23,24,24,25,25,26,26,28,28,29,29,30,30],"right_children":[2,4,6,8,10,12,14,16,18,20,22,24,26,28,30,-1,32,34,36,-1,38,40,42,44,46,48,50,-1,52,54,56,-1,-1,-1,-1,-1,-1,-1,-1,-1,-1,-1,-1,-1,-1,-1,-1,-1,-1,-1,-1,-1,-1,-1,-1,-1,-1],"split_conditions":[-1.75E0,-1.0083333E1,5.75E0,-1.85E1,7.8916664E1,8.0083336E1,6.99E0,2.54E1,8.1583336E1,-6.8333335E0,8.7666664E1,2.5E0,8.9E1,2.51E1,6.47E0,-1.0374317E-1,6.29E0,7.8083336E1,8.8E1,-2.0013972E-1,7.4833336E1,8.3416664E1,2.984E1,7.425E1,7.4666664E1,6.05E0,6.2E0,1.6253306E-1,3E1,7.3166664E1,-6.666667E-1,-4.545076E-1,-1.2136536E-1,-2.828787E-1,-2.046159E-1,-1.3827229E-1,8.149592E-3,-1.8894367E-1,-1.069124E-1,-7.162894E-2,-2.3134908E-2,1.0128728E-1,2.2004033E-2,-1.4676514E-1,-5.2755255E-2,-5.6212552E-2,2.853739E-2,2.4891911E-2,8.026795E-2,5.0852776E-2,2.2076881E-1,7.932468E-2,-2.6301384E-2,1.4453888E-3,1.1396887E-1,7.1015455E-2,2.1114671E-1],"split_indices":[11,11,11,11,8,8,1,0,8,11,8,11,8,0,2,0,1,8,8,0,8,8,0,8,8,2,2,0,0,7,13,0,0,0,0,0,0,0,0,0,0,0,0,0,0,0,0,0,0,0,0,0,0,0,0,0,0],"split_type":[0,0,0,0,0,0,0,0,0,0,0,0,0,0,0,0,0,0,0,0,0,0,0,0,0,0,0,0,0,0,0,0,0,0,0,0,0,0,0,0,0,0,0,0,0,0,0,0,0,0,0,0,0,0,0,0,0],"sum_hessian":[1.054E3,4.26E2,6.28E2,1.34E2,2.92E2,3.62E2,2.66E2,1.8E1,1.16E2,7.1E1,2.21E2,1.18E2,2.44E2,1.01E2,1.65E2,1E0,1.7E1,7.9E1,3.7E1,3.1E1,4E1,2.08E2,1.3E1,8.4E1,3.4E1,2.39E2,5E0,8E0,9.3E1,2.7E1,1.38E2,1.6E1,1E0,3.6E1,4.3E1,3.5E1,2E0,1.5E1,2.5E1,1.34E2,7.4E1,1E1,3E0,4E0,8E1,1.6E1,1.8E1,1.6E1,2.23E2,1E0,4E0,9.2E1,1E0,3E0,2.4E1,3E0,1.35E2],"tree_param":{"num_deleted":"0","num_feature":"14","num_nodes":"57","size_leaf_vector":"1"}},{"base_weights":[-7.244409E-2,-2.157578E0,1.9561473E0,-4.2263227E0,-1.0727851E0,1.1270827E0,3.3221402E0,-7.71314E0,-3.7686872E0,-1.4305567E0,1.3484004E0,-9.904753E-1,1.4835978E0,3.3552277E-1,3.7418067E0,-1.9259392E-1,-8.486017E0,-4.5423236E0,-2.5474477E0,-3.5383945E0,-1.1625358E0,1.8846785E-1,1.5314038E0,3.0318832E-2,-5.1918577E-2,1.6497633E-1,1.4029255E0,-5.748501E-2,7.643135E-1,2.6360695E0,3.998858E0,-4.3894956E-1,-1.096098E-1,-2.6978955E-1,-1.941036E-1,-1.6527335E-1,-8.143556E-2,-1.92767E-1,-1.2277905E-1,-8.345369E-2,-4.036567E-2,-4.7430038E-3,2.123394E-2,4.341216E-2,8.285999E-2,-3.0888778E-3,7.361837E-2,1.2142086E-1,2.7445883E-2,1.3460337E-1,1.8303871E-2,2.0196323E-1,1.0661781E-1],"categories":[],"categories_nodes":[],"categories_segments":[],"categories_sizes":[],"default_left":[0,0,0,0,0,0,0,0,0,0,0,0,0,0,0,0,0,0,0,0,0,0,0,0,0,0,0,0,0,0,0,0,0,0,0,0,0,0,0,0,0,0,0,0,0,0,0,0,0,0,0,0,0],"id":25,"left_children":[1,3,5,7,9,11,13,15,17,19,21,23,25,27,29,-1,31,33,35,37,39,41,43,-1,-1,-1,45,-1,47,49,51,-1,-1,-1,-1,-1,-1,-1,-1,-1,-1,-1,-1,-1,-1,-1,-1,-1,-1,-1,-1,-1,-1],"loss_changes":[4.2975537E3,1.1197898E3,5.794912E2,2.4539062E2,2.8778528E2,2.4456058E2,2.4190088E2,2.4014282E1,1.33927E2,1.5859052E2,8.839066E0,4.2243576E0,3.580359E1,1.6799978E1,3.7778076E1,0E0,8.413574E0,3.1458862E1,3.7794434E1,1.5150452E0,4.4895477E1,5.087612E-1,1.647789E0,0E0,0E0,0E0,2.714624E1,0E0,5.8358183E0,3.4634552E0,1.6437988E0,0E0,0E0,0E0,0E0,0E0,0E0,0E0,0E0,0E0,0E0,0E0,0E0,0E0,0E0,0E0,0E0,0E0,0E0,0E0,0E0,0E0,0E0],"parents":[2147483647,0,0,1,1,2,2,3,3,4,4,5,5,6,6,7,7,8,8,9,9,10,10,11,11,12,12,13,13,14,14,16,16,17,17,18,18,19,19,20,20,21,21,22,22,26,26,28,28,29,29,30,30],"right_children":[2,4,6,8,10,12,14,16,18,20,22,24,26,28,30,-1,32,34,36,38,40,42,44,-1,-1,-1,46,-1,48,50,52,-1,-1,-1,-1,-1,-1,-1,-1,-1,-1,-1,-1,-1,-1,-1,-1,-1,-1,-1,-1,-1,-1],"split_conditions":[2.5E-1,-8.5E0,7.01E0,-1.85E1,8.5583336E1,6.01E0,5.99E0,2.737E1,8.1083336E1,7.6083336E1,-6.25E0,2.36E1,2.51E1,5.47E0,6.49E0,-1.9259392E-1,6.29E0,-1.2833333E1,-1.2833333E1,-2E0,-5.1666665E0,2.984E1,6.43E0,3.0318832E-2,-5.1918577E-2,1.6497633E-1,6.5E0,-5.748501E-2,2.51E1,3E1,3.004E1,-4.3894956E-1,-1.096098E-1,-2.6978955E-1,-1.941036E-1,-1.6527335E-1,-8.143556E-2,-1.92767E-1,-1.2277905E-1,-8.345369E-2,-4.036567E-2,-4.7430038E-3,2.123394E-2,4.341216E-2,8.285999E-2,-3.0888778E-3,7.361837E-2,1.2142086E-1,2.7445883E-2,1.3460337E-1,1.8303871E-2,2.0196323E-1,1.0661781E-1],"split_indices":[11,11,1,11,8,1,2,0,8,8,11,0,0,2,2,0,1,11,11,11,11,0,2,0,0,0,2,0,0,0,0,0,0,0,0,0,0,0,0,0,0,0,0,0,0,0,0,0,0,0,0,0,0],"split_type":[0,0,0,0,0,0,0,0,0,0,0,0,0,0,0,0,0,0,0,0,0,0,0,0,0,0,0,0,0,0,0,0,0,0,0,0,0,0,0,0,0,0,0,0,0,0,0,0,0,0,0,0,0],"sum_hessian":[1.014E3,5E2,5.14E2,1.71E2,3.29E2,3.21E2,1.93E2,1.8E1,1.53E2,2.87E2,4.2E1,4.6E1,2.75E2,2.4E1,1.69E2,4E0,1.4E1,9.2E1,6.1E1,3.1E1,2.56E2,6E0,3.6E1,1E0,4.5E1,1E1,2.65E2,5E0,1.9E1,3.4E1,1.35E2,1.3E1,1E0,3.7E1,5.5E1,3.2E1,2.9E1,2.2E1,9E0,1.04E2,1.52E2,3E0,3E0,7E0,2.9E1,1.2E1,2.53E2,1E0,1.8E1,3.3E1,1E0,1.31E2,4E0],"tree_param":{"num_deleted":"0","num_feature":"14","num_nodes":"53","size_leaf_vector":"1"}},{"base_weights":[-3.1556606E-2,-2.4856846E0,1.5607778E0,-5.5388527E0,-1.8337382E0,4.541291E-1,2.5822134E0,-6.8683977E0,-4.3660655E0,-3.4674191E0,-1.1794492E0,-7.552899E-1,1.400742E0,1.4855123E0,3.4129233E0,-3.7537214E-1,-2.2005606E-1,-2.719892E-1,-1.8039246E-1,-4.2787986E0,-2.8229637E0,-2.1201465E0,-7.189959E-1,-1.0557137E0,-2.8510413E-1,5.5065536E-1,1.4443011E0,-5.456095E-2,1.5480754E0,1.9625206E0,3.806786E0,-2.3770373E-1,-1.6640845E-1,-1.715495E-1,-9.830242E-2,-1.4651427E-1,-5.242901E-2,-4.4755295E-2,5.5675913E-2,-1.2231697E-1,-4.765181E-2,-4.974051E-2,2.5872832E-2,3.2979473E-2,1.111784E-2,6.7747414E-2,1.3379529E-1,1.4519635E-1,7.277881E-2,4.3218154E-2,1.1179127E-1,3.894348E-2,1.9111484E-1],"categories":[],"categories_nodes":[],"categories_segments":[],"categories_sizes":[],"default_left":[0,0,0,0,0,0,0,0,0,0,0,0,0,0,0,0,0,0,0,0,0,0,0,0,0,0,0,0,0,0,0,0,0,0,0,0,0,0,0,0,0,0,0,0,0,0,0,0,0,0,0,0,0],"id":26,"left_children":[1,3,5,7,9,11,13,15,17,19,21,23,25,27,29,-1,-1,-1,-1,31,33,35,37,39,41,43,45,-1,47,49,51,-1,-1,-1,-1,-1,-1,-1,-1,-1,-1,-1,-1,-1,-1,-1,-1,-1,-1,-1,-1,-1,-1],"loss_changes":[4.0914304E3,8.099302E2,7.166127E2,8.2279785E1,3.6040527E2,3.5138263E2,2.955735E2,1.741333E1,1.37526245E1,3.864209E1,1.0459665E2,1.8768433E1,5.5736694E0,2.490335E1,9.935449E1,0E0,0E0,0E0,0E0,2.7019653E0,2.2953033E1,6.637674E1,5.45689E1,9.377007E0,3.127221E1,2.1096492E-1,1.4312012E1,0E0,1.3456604E1,1.0672943E1,3.8798828E0,0E0,0E0,0E0,0E0,0E0,0E0,0E0,0E0,0E0,0E0,0E0,0E0,0E0,0E0,0E0,0E0,0E0,0E0,0E0,0E0,0E0,0E0],"parents":[2147483647,0,0,1,1,2,2,3,3,4,4,5,5,6,6,7,7,8,8,9,9,10,10,11,11,12,12,13,13,14,14,19,19,20,20,21,21,22,22,23,23,24,24,25,25,26,26,28,28,29,29,30,30],"right_children":[2,4,6,8,10,12,14,16,18,20,22,24,26,28,30,-1,-1,-1,-1,32,34,36,38,40,42,44,46,-1,48,50,52,-1,-1,-1,-1,-1,-1,-1,-1,-1,-1,-1,-1,-1,-1,-1,-1,-1,-1,-1,-1,-1,-1],"split_conditions":[-2E0,-1.375E1,4.5E0,7.7916664E1,7.9083336E1,8.175E1,6.99E0,5.99E0,-1.7833334E1,7.575E1,-7.5E0,1.3333334E0,6.15E0,6.01E0,6.49E0,-3.7537214E-1,-2.2005606E-1,-2.719892E-1,-1.8039246E-1,-6.3333335E0,-7.25E0,8.3333336E1,8.4583336E1,7.55E1,7.5666664E1,-2.5E-1,7.01E0,-5.456095E-2,2.51E1,5.951E0,-2.6666667E0,-2.3770373E-1,-1.6640845E-1,-1.715495E-1,-9.830242E-2,-1.4651427E-1,-5.242901E-2,-4.4755295E-2,5.5675913E-2,-1.2231697E-1,-4.765181E-2,-4.974051E-2,2.5872832E-2,3.2979473E-2,1.111784E-2,6.7747414E-2,1.3379529E-1,1.4519635E-1,7.277881E-2,4.3218154E-2,1.1179127E-1,3.894348E-2,1.9111484E-1],"split_indices":[11,11,11,8,8,8,1,1,10,8,11,11,2,1,2,0,0,0,0,10,11,8,8,8,8,11,1,0,0,2,12,0,0,0,0,0,0,0,0,0,0,0,0,0,0,0,0,0,0,0,0,0,0],"split_type":[0,0,0,0,0,0,0,0,0,0,0,0,0,0,0,0,0,0,0,0,0,0,0,0,0,0,0,0,0,0,0,0,0,0,0,0,0,0,0,0,0,0,0,0,0,0,0,0,0,0,0,0,0],"sum_hessian":[1.045E3,4.11E2,6.34E2,7.1E1,3.4E2,3.05E2,3.29E2,3.1E1,4E1,9.6E1,2.44E2,1.34E2,1.71E2,1.43E2,1.86E2,2.3E1,8E0,1.4E1,2.6E1,4E1,5.6E1,7.9E1,1.65E2,8.1E1,5.3E1,9E0,1.62E2,3E0,1.4E2,4.1E1,1.45E2,2.4E1,1.6E1,3.1E1,2.5E1,4.4E1,3.5E1,1.51E2,1.4E1,4E0,7.7E1,2.8E1,2.5E1,6E0,3E0,1.53E2,9E0,7E0,1.33E2,9E0,3.2E1,1E0,1.44E2],"tree_param":{"num_deleted":"0","num_feature":"14","num_nodes":"53","size_leaf_vector":"1"}},{"base_weights":[1.6755227E-2,-2.5863159E0,1.3201663E0,-4.1740236E0,-1.3884511E0,3.1586653E-1,2.4919093E0,-6.3658824E0,-3.2661736E0,-3.149756E0,-9.0535325E-1,-8.614145E-1,1.3768183E0,1.4188284E0,3.2640455E0,-7.9900265E0,-2.5838265E-1,-2.0975788E-1,-2.8955693E0,-1.7306876E-1,-1.3927021E0,-1.2919286E0,-2.821305E-1,-1.6472085E-1,-7.8567946E-1,1.2829665E0,2.1786575E0,1.481923E-1,1.2972094E0,1.86004E0,3.607115E0,-4.235169E-1,-1.5426153E-1,-1.6320401E-1,-1.0538894E-1,1.1945344E-2,-8.2995936E-2,-9.858631E-2,-4.6869162E-2,-2.848815E-2,4.118626E-2,-4.8512753E-2,-7.6161767E-3,2.9264277E-2,6.815802E-2,5.24408E-2,1.5453167E-1,-1.7947389E-2,6.7722596E-2,4.423367E-2,1.0883949E-1,1.8201452E-1,7.5965784E-2],"categories":[],"categories_nodes":[],"categories_segments":[],"categories_sizes":[],"default_left":[0,0,0,0,0,0,0,0,0,0,0,0,0,0,0,0,0,0,0,0,0,0,0,0,0,0,0,0,0,0,0,0,0,0,0,0,0,0,0,0,0,0,0,0,0,0,0,0,0,0,0,0,0],"id":27,"left_children":[1,3,5,7,9,11,13,15,17,19,21,23,25,27,29,31,-1,-1,33,-1,35,37,39,-1,41,43,45,-1,47,49,51,-1,-1,-1,-1,-1,-1,-1,-1,-1,-1,-1,-1,-1,-1,-1,-1,-1,-1,-1,-1,-1,-1],"loss_changes":[3.4878938E3,6.46542E2,8.05308E2,2.7171997E2,1.6477225E2,4.6333017E2,2.571953E2,4.0446533E1,2.4346924E1,1.817569E1,3.7219437E1,2.9842026E1,1.1879395E1,2.133435E1,8.14364E1,1.1560303E1,0E0,0E0,1.6054504E1,0E0,3.884509E0,2.1289566E1,1.9872211E1,0E0,1.9959358E1,9.105286E0,1.6335869E1,0E0,1.243129E1,9.8142395E0,4.581909E0,0E0,0E0,0E0,0E0,0E0,0E0,0E0,0E0,0E0,0E0,0E0,0E0,0E0,0E0,0E0,0E0,0E0,0E0,0E0,0E0,0E0,0E0],"parents":[2147483647,0,0,1,1,2,2,3,3,4,4,5,5,6,6,7,7,8,8,9,9,10,10,11,11,12,12,13,13,14,14,15,15,18,18,20,20,21,21,22,22,24,24,25,25,26,26,28,28,29,29,30,30],"right_children":[2,4,6,8,10,12,14,16,18,20,22,24,26,28,30,32,-1,-1,34,-1,36,38,40,-1,42,44,46,-1,48,50,52,-1,-1,-1,-1,-1,-1,-1,-1,-1,-1,-1,-1,-1,-1,-1,-1,-1,-1,-1,-1,-1,-1],"split_conditions":[-3.5E0,8.05E1,4.5E0,-1.25E1,-1.175E1,8.1583336E1,6.99E0,-1.85E1,7.4666664E1,8.5666664E1,8.3916664E1,7.225E1,7.01E0,2.51E1,6.49E0,4.84E0,-2.5838265E-1,-2.0975788E-1,-6.8333335E0,-1.7306876E-1,2.66E1,-6.8333335E0,-6.8333335E0,-1.6472085E-1,2.0833333E0,6.49E0,6.28E0,1.481923E-1,7.175E1,5.951E0,3.004E1,-4.235169E-1,-1.5426153E-1,-1.6320401E-1,-1.0538894E-1,1.1945344E-2,-8.2995936E-2,-9.858631E-2,-4.6869162E-2,-2.848815E-2,4.118626E-2,-4.8512753E-2,-7.6161767E-3,2.9264277E-2,6.815802E-2,5.24408E-2,1.5453167E-1,-1.7947389E-2,6.7722596E-2,4.423367E-2,1.0883949E-1,1.8201452E-1,7.5965784E-2],"split_indices":[11,8,11,11,11,8,1,11,8,8,8,8,1,0,2,2,0,0,11,0,0,11,11,0,11,2,2,0,8,2,0,0,0,0,0,0,0,0,0,0,0,0,0,0,0,0,0,0,0,0,0,0,0],"split_type":[0,0,0,0,0,0,0,0,0,0,0,0,0,0,0,0,0,0,0,0,0,0,0,0,0,0,0,0,0,0,0,0,0,0,0,0,0,0,0,0,0,0,0,0,0,0,0,0,0,0,0,0,0],"sum_hessian":[1.026E3,3.42E2,6.84E2,1.46E2,1.96E2,3.69E2,3.15E2,4.1E1,1.05E2,4.1E1,1.55E2,1.75E2,1.94E2,1.33E2,1.82E2,1.5E1,2.6E1,2.7E1,7.8E1,3.4E1,7E0,9.5E1,6E1,4E0,1.71E2,1.76E2,1.8E1,8E0,1.25E2,3.7E1,1.45E2,1.3E1,2E0,5.1E1,2.7E1,1E0,6E0,3.1E1,6.4E1,4.8E1,1.2E1,1.32E2,3.9E1,1.9E1,1.57E2,9E0,9E0,4E0,1.21E2,1E1,2.7E1,1.42E2,3E0],"tree_param":{"num_deleted":"0","num_feature":"14","num_nodes":"53","size_leaf_vector":"1"}},{"base_weights":[4.5141824E-2,-2.4459863E0,1.2610279E0,-5.1395907E0,-1.85762E0,2.57356E-1,2.348808E0,-6.815928E0,-4.2989087E0,-3.0444922E0,-9.416649E-1,-8.415845E-1,1.2434225E0,1.3810885E0,3.0849376E0,-3.9423764E-1,-2.1803498E-1,-2.4828024E-1,-1.5300183E-1,-1.9609557E-1,-2.6596968E0,-1.3900677E0,-3.7752533E-1,-1.0226667E0,-1.5229276E-1,1.0888118E0,1.5477103E0,1.4384334E-1,1.2420206E0,1.8114783E0,3.4143517E0,-1.5354368E-1,-9.282129E-2,-1.032957E-1,-4.6538625E-2,-3.5353567E-2,3.845078E-2,-1.4164227E-1,-4.6023663E-2,-4.7338042E-2,2.6796594E-2,2.1344362E-2,6.298163E-2,6.888795E-2,1.3673887E-1,-4.4707235E-2,6.398661E-2,5.4728724E-2,1.1275949E-1,4.6545982E-2,1.7289071E-1],"categories":[],"categories_nodes":[],"categories_segments":[],"categories_sizes":[],"default_left":[0,0,0,0,0,0,0,0,0,0,0,0,0,0,0,0,0,0,0,0,0,0,0,0,0,0,0,0,0,0,0,0,0,0,0,0,0,0,0,0,0,0,0,0,0,0,0,0,0,0,0],"id":28,"left_children":[1,3,5,7,9,11,13,15,17,19,21,23,25,27,29,-1,-1,-1,-1,-1,31,33,35,37,39,41,43,-1,45,47,49,-1,-1,-1,-1,-1,-1,-1,-1,-1,-1,-1,-1,-1,-1,-1,-1,-1,-1,-1,-1],"loss_changes":[3.2228347E3,5.4355664E2,7.800143E2,5.8073364E1,3.1022412E2,4.052398E2,2.4008118E2,1.5476929E1,2.1146912E1,3.1772339E1,4.0960953E1,2.1937119E1,7.582947E0,2.7629059E1,7.519702E1,0E0,0E0,0E0,0E0,0E0,2.4024902E1,2.6324661E1,2.8503761E1,2.3290802E1,2.1284754E1,1.4613724E1,9.143738E0,0E0,1.2341827E1,1.0891678E1,1.329541E1,0E0,0E0,0E0,0E0,0E0,0E0,0E0,0E0,0E0,0E0,0E0,0E0,0E0,0E0,0E0,0E0,0E0,0E0,0E0,0E0],"parents":[2147483647,0,0,1,1,2,2,3,3,4,4,5,5,6,6,7,7,8,8,9,9,10,10,11,11,12,12,13,13,14,14,20,20,21,21,22,22,23,23,24,24,25,25,26,26,28,28,29,29,30,30],"right_children":[2,4,6,8,10,12,14,16,18,20,22,24,26,28,30,-1,-1,-1,-1,-1,32,34,36,38,40,42,44,-1,46,48,50,-1,-1,-1,-1,-1,-1,-1,-1,-1,-1,-1,-1,-1,-1,-1,-1,-1,-1,-1,-1],"split_conditions":[-3.5E0,-1.4E1,4.5E0,-1.9666666E1,8.0833336E1,8.1583336E1,6.99E0,4.84E0,8.0833336E1,7.575E1,8.375E1,2.0833333E0,8.5166664E1,2.51E1,6.49E0,-3.9423764E-1,-2.1803498E-1,-2.4828024E-1,-1.5300183E-1,-1.9609557E-1,-7.1666665E0,-6.8333335E0,-6.6666665E0,7.4083336E1,7.4833336E1,8.333333E-1,1.25E0,1.4384334E-1,6.01E0,7.484E0,-6.666667E-1,-1.5354368E-1,-9.282129E-2,-1.032957E-1,-4.6538625E-2,-3.5353567E-2,3.845078E-2,-1.4164227E-1,-4.6023663E-2,-4.7338042E-2,2.6796594E-2,2.1344362E-2,6.298163E-2,6.888795E-2,1.3673887E-1,-4.4707235E-2,6.398661E-2,5.4728724E-2,1.1275949E-1,4.6545982E-2,1.7289071E-1],"split_indices":[11,11,11,11,8,8,1,2,8,8,8,11,8,0,2,0,0,0,0,0,11,11,11,8,8,11,11,0,1,1,13,0,0,0,0,0,0,0,0,0,0,0,0,0,0,0,0,0,0,0,0],"split_type":[0,0,0,0,0,0,0,0,0,0,0,0,0,0,0,0,0,0,0,0,0,0,0,0,0,0,0,0,0,0,0,0,0,0,0,0,0,0,0,0,0,0,0,0,0,0,0,0,0,0,0],"sum_hessian":[1.062E3,3.48E2,7.14E2,6.1E1,2.87E2,3.72E2,3.42E2,1.8E1,4.3E1,1.24E2,1.63E2,1.76E2,1.96E2,1.49E2,1.93E2,1.1E1,7E0,2.6E1,1.7E1,3.5E1,8.9E1,9E1,7.3E1,1.39E2,3.7E1,1.33E2,6.3E1,1.1E1,1.38E2,4.1E1,1.52E2,5.7E1,3.2E1,3.5E1,5.5E1,5.7E1,1.6E1,6E0,1.33E2,1.7E1,2E1,2.8E1,1.05E2,5.7E1,6E0,2E0,1.36E2,1.7E1,2.4E1,3E0,1.49E2],"tree_param":{"num_deleted":"0","num_feature":"14","num_nodes":"51","size_leaf_vector":"1"}},{"base_weights":[-3.7635595E-2,-2.4351041E0,1.1302397E0,-4.5005975E0,-1.7505262E0,2.7328363E-1,2.1593468E0,-5.190264E0,-3.0861886E0,-2.9272118E0,-8.501002E-1,-7.461396E-1,1.1949838E0,1.2138065E0,2.9294531E0,-6.4164743E0,-2.2364211E-1,-1.5738694E-1,-3.2530785E-2,-1.9407332E-1,-2.6477165E0,-1.201122E0,-2.048704E-1,-1.5482852E-1,-6.622485E-1,9.516542E-1,1.3916323E0,-5.186035E-2,1.2855299E0,1.6296813E0,3.2567146E0,-3.619355E-1,-2.0451443E-1,-1.3866842E-1,-5.144105E-2,-9.4241604E-2,-4.3607302E-2,-2.7133588E-2,4.381312E-2,-4.3140776E-2,-1.067366E-2,1.4519232E-2,6.019661E-2,6.275748E-2,1.4789167E-1,1.3252728E-1,6.0231477E-2,4.9365595E-2,1.09313905E-1,1.6385435E-1,6.2379714E-2],"categories":[],"categories_nodes":[],"categories_segments":[],"categories_sizes":[],"default_left":[0,0,0,0,0,0,0,0,0,0,0,0,0,0,0,0,0,0,0,0,0,0,0,0,0,0,0,0,0,0,0,0,0,0,0,0,0,0,0,0,0,0,0,0,0,0,0,0,0,0,0],"id":29,"left_children":[1,3,5,7,9,11,13,15,17,19,21,23,25,27,29,31,-1,-1,-1,-1,33,35,37,-1,39,41,43,-1,45,47,49,-1,-1,-1,-1,-1,-1,-1,-1,-1,-1,-1,-1,-1,-1,-1,-1,-1,-1,-1,-1],"loss_changes":[2.9062947E3,4.7287878E2,6.149759E2,6.592151E1,2.6980786E2,3.5981982E2,2.2727307E2,1.9684204E1,2.4493103E0,1.9327698E1,3.3047913E1,3.3836105E1,8.293579E0,2.4582169E1,6.8706055E1,4.819641E0,0E0,0E0,0E0,0E0,1.52508545E1,1.9723953E1,1.9831553E1,0E0,1.574749E1,1.5165001E1,1.9587234E1,0E0,1.2267288E1,1.1070473E1,1.5599365E0,0E0,0E0,0E0,0E0,0E0,0E0,0E0,0E0,0E0,0E0,0E0,0E0,0E0,0E0,0E0,0E0,0E0,0E0,0E0,0E0],"parents":[2147483647,0,0,1,1,2,2,3,3,4,4,5,5,6,6,7,7,8,8,9,9,10,10,11,11,12,12,13,13,14,14,15,15,20,20,21,21,22,22,24,24,25,25,26,26,28,28,29,29,30,30],"right_children":[2,4,6,8,10,12,14,16,18,20,22,24,26,28,30,32,-1,-1,-1,-1,34,36,38,-1,40,42,44,-1,46,48,50,-1,-1,-1,-1,-1,-1,-1,-1,-1,-1,-1,-1,-1,-1,-1,-1,-1,-1,-1,-1],"split_conditions":[-3.5E0,-1.275E1,4.5E0,8.1333336E1,8.075E1,8.1583336E1,7.01E0,-1.85E1,8.3333336E1,7.475E1,8.3916664E1,7.2333336E1,8.3916664E1,6.01E0,6.49E0,4.84E0,-2.2364211E-1,-1.5738694E-1,-3.2530785E-2,-1.9407332E-1,-4.75E0,-7E0,-6.8333335E0,-1.5482852E-1,1.75E0,1.0833334E0,2.25E0,-5.186035E-2,2.51E1,7.9E1,3.004E1,-3.619355E-1,-2.0451443E-1,-1.3866842E-1,-5.144105E-2,-9.4241604E-2,-4.3607302E-2,-2.7133588E-2,4.381312E-2,-4.3140776E-2,-1.067366E-2,1.4519232E-2,6.019661E-2,6.275748E-2,1.4789167E-1,1.3252728E-1,6.0231477E-2,4.9365595E-2,1.09313905E-1,1.6385435E-1,6.2379714E-2],"split_indices":[11,11,11,8,8,8,1,11,6,8,8,8,8,1,2,2,0,0,0,0,11,11,11,0,11,11,11,0,0,8,0,0,0,0,0,0,0,0,0,0,0,0,0,0,0,0,0,0,0,0,0],"split_type":[0,0,0,0,0,0,0,0,0,0,0,0,0,0,0,0,0,0,0,0,0,0,0,0,0,0,0,0,0,0,0,0,0,0,0,0,0,0,0,0,0,0,0,0,0,0,0,0,0,0,0],"sum_hessian":[1.036E3,3.39E2,6.97E2,8.3E1,2.56E2,3.81E2,3.16E2,5.4E1,2.9E1,1.1E2,1.46E2,1.81E2,2E2,1.43E2,1.73E2,1.7E1,3.7E1,2.8E1,1E0,2.2E1,8.8E1,9.4E1,5.2E1,5E0,1.76E2,9.2E1,1.08E2,4E0,1.39E2,3.6E1,1.37E2,1.1E1,6E0,8.1E1,7E0,2.9E1,6.5E1,4E1,1.2E1,1.21E2,5.5E1,2.6E1,6.6E1,1.01E2,7E0,6E0,1.33E2,1.8E1,1.8E1,1.35E2,2E0],"tree_param":{"num_deleted":"0","num_feature":"14","num_nodes":"51","size_leaf_vector":"1"}},{"base_weights":[-1.3607771E-2,-1.7327781E0,1.4237051E0,-3.5960863E0,-1.0426419E0,6.0830456E-1,2.2166283E0,-4.9865885E0,-2.7233052E0,-1.9240364E0,-3.5321262E-1,-5.4254144E-1,1.1898366E0,1.2794276E0,2.8210392E0,-3.5337028E-1,-2.1538894E-1,-2.1034665E-1,-2.2797344E0,-2.6126986E0,-1.1095077E0,-5.953211E-1,9.740171E-1,-8.1206095E-1,1.8322285E-1,1.1447642E0,1.1643397E-1,1.3098793E-1,1.1511352E0,1.708648E0,3.0666034E0,-1.1844688E-1,1.4698665E-2,-1.5553199E-1,-1.1258606E-1,-1.5462105E-1,-4.7123812E-2,-3.882071E-2,3.2551026E-3,3.312731E-3,6.23706E-2,-4.1461263E-2,8.448601E-3,-3.549553E-2,3.4890883E-2,-1.5595245E-2,5.815447E-2,-2.3739815E-2,5.857653E-2,5.2971024E-2,1.0388374E-1,4.2514898E-2,1.554778E-1],"categories":[],"categories_nodes":[],"categories_segments":[],"categories_sizes":[],"default_left":[0,0,0,0,0,0,0,0,0,0,0,0,0,0,0,0,0,0,0,0,0,0,0,0,0,0,0,0,0,0,0,0,0,0,0,0,0,0,0,0,0,0,0,0,0,0,0,0,0,0,0,0,0],"id":30,"left_children":[1,3,5,7,9,11,13,15,17,19,21,23,25,27,29,-1,-1,-1,31,33,35,37,39,41,43,45,-1,-1,47,49,51,-1,-1,-1,-1,-1,-1,-1,-1,-1,-1,-1,-1,-1,-1,-1,-1,-1,-1,-1,-1,-1,-1],"loss_changes":[2.5179302E3,5.9292505E2,3.5748682E2,1.381206E2,2.0592447E2,1.8469037E2,1.5556433E2,3.594165E1,4.2398743E1,8.06806E1,6.2275894E1,1.8340305E1,6.727661E0,1.624318E1,4.119812E1,0E0,0E0,0E0,1.5160095E1,7.375305E0,2.0270088E1,1.9545033E1,7.3626823E0,1.2851448E0,1.2445035E1,5.114273E0,0E0,0E0,4.0050507E0,5.7050858E0,1.049292E1,0E0,0E0,0E0,0E0,0E0,0E0,0E0,0E0,0E0,0E0,0E0,0E0,0E0,0E0,0E0,0E0,0E0,0E0,0E0,0E0,0E0,0E0],"parents":[2147483647,0,0,1,1,2,2,3,3,4,4,5,5,6,6,7,7,8,8,9,9,10,10,11,11,12,12,13,13,14,14,18,18,19,19,20,20,21,21,22,22,23,23,24,24,25,25,28,28,29,29,30,30],"right_children":[2,4,6,8,10,12,14,16,18,20,22,24,26,28,30,-1,-1,-1,32,34,36,38,40,42,44,46,-1,-1,48,50,52,-1,-1,-1,-1,-1,-1,-1,-1,-1,-1,-1,-1,-1,-1,-1,-1,-1,-1,-1,-1,-1,-1],"split_conditions":[-8.333333E-1,-1.0083333E1,5.25E0,7.8083336E1,8.0333336E1,8.0333336E1,6.99E0,-1.9666666E1,-1.675E1,-3.5E0,8.6583336E1,7.7833336E1,8.6833336E1,2.51E1,6.49E0,-3.5337028E-1,-2.1538894E-1,-2.1034665E-1,8.8E1,-7.25E0,7.2833336E1,-3.5E0,-6.25E0,3.077E1,1.25E0,2.4E1,1.1643397E-1,1.3098793E-1,5.92E0,7.484E0,-6.666667E-1,-1.1844688E-1,1.4698665E-2,-1.5553199E-1,-1.1258606E-1,-1.5462105E-1,-4.7123812E-2,-3.882071E-2,3.2551026E-3,3.312731E-3,6.23706E-2,-4.1461263E-2,8.448601E-3,-3.549553E-2,3.4890883E-2,-1.5595245E-2,5.815447E-2,-2.3739815E-2,5.857653E-2,5.2971024E-2,1.0388374E-1,4.2514898E-2,1.554778E-1],"split_indices":[11,11,11,8,8,8,1,11,11,11,8,8,8,0,2,0,0,0,8,11,8,11,11,0,11,0,0,0,1,1,13,0,0,0,0,0,0,0,0,0,0,0,0,0,0,0,0,0,0,0,0,0,0],"split_type":[0,0,0,0,0,0,0,0,0,0,0,0,0,0,0,0,0,0,0,0,0,0,0,0,0,0,0,0,0,0,0,0,0,0,0,0,0,0,0,0,0,0,0,0,0,0,0,0,0,0,0,0,0],"sum_hessian":[1.017E3,4.63E2,5.54E2,1.24E2,3.39E2,2.74E2,2.8E2,4.6E1,7.8E1,1.48E2,1.91E2,9.2E1,1.82E2,1.11E2,1.69E2,9E0,3.7E1,1.6E1,6.2E1,7.9E1,6.9E1,1.62E2,2.9E1,6.7E1,2.5E1,1.77E2,5E0,8E0,1.03E2,3.2E1,1.37E2,6E1,2E0,3E1,4.9E1,4E0,6.5E1,1.27E2,3.5E1,7E0,2.2E1,6.6E1,1E0,9E0,1.6E1,2E0,1.75E2,1E0,1.02E2,1.3E1,1.9E1,3E0,1.34E2],"tree_param":{"num_deleted":"0","num_feature":"14","num_nodes":"53","size_leaf_vector":"1"}},{"base_weights":[6.134699E-2,-1.5352293E0,1.484013E0,-3.0259833E0,-7.450363E-1,8.2843375E-1,2.390088E0,-4.6631536E0,-2.4562442E0,-1.3665229E0,1.13908224E-1,-7.1692836E-1,1.094373E0,3.7254792E-1,2.7435794E0,-3.0749327E-1,-3.7846324E0,-3.4057121E0,-1.940966E0,-2.4237525E0,-1.0839294E0,-5.2723306E-1,8.6696315E-1,-3.8830753E-2,4.1734824E-1,1.23500876E-1,1.042941E0,1.4418958E-1,1.329637E-1,1.9482598E0,2.9259915E0,-2.1883348E-1,-1.4701435E-1,-1.9879995E-1,-1.3403103E-1,-1.1538135E-1,-4.9167052E-2,-1.3655923E-1,-8.112233E-2,-1.0258132E-1,-4.038171E-2,-3.4980748E-2,4.0883454E-3,2.4123153E-2,5.951185E-2,2.782917E-2,3.4719468E-3,4.547354E-3,5.4413646E-2,-3.3189803E-2,3.0993218E-2,1.0344409E-1,-9.441503E-3,2.5632223E-2,1.477094E-1],"categories":[],"categories_nodes":[],"categories_segments":[],"categories_sizes":[],"default_left":[0,0,0,0,0,0,0,0,0,0,0,0,0,0,0,0,0,0,0,0,0,0,0,0,0,0,0,0,0,0,0,0,0,0,0,0,0,0,0,0,0,0,0,0,0,0,0,0,0,0,0,0,0,0,0],"id":31,"left_children":[1,3,5,7,9,11,13,15,17,19,21,23,25,27,29,-1,31,33,35,37,39,41,43,-1,45,-1,47,-1,49,51,53,-1,-1,-1,-1,-1,-1,-1,-1,-1,-1,-1,-1,-1,-1,-1,-1,-1,-1,-1,-1,-1,-1,-1,-1],"loss_changes":[2.3281865E3,5.6671155E2,3.199702E2,1.4431714E2,1.693774E2,1.3065186E2,1.6087024E2,3.1581604E1,5.5033875E1,5.2345825E1,6.515425E1,3.5060787E0,1.6526978E1,2.0674461E1,2.2299194E1,0E0,1.6279602E0,7.1227417E0,2.7225159E1,4.9299927E0,3.7646423E1,7.720785E0,7.132286E0,0E0,1.0667515E-1,0E0,1.1207825E1,0E0,1.3213576E1,1.0444077E1,9.032959E0,0E0,0E0,0E0,0E0,0E0,0E0,0E0,0E0,0E0,0E0,0E0,0E0,0E0,0E0,0E0,0E0,0E0,0E0,0E0,0E0,0E0,0E0,0E0,0E0],"parents":[2147483647,0,0,1,1,2,2,3,3,4,4,5,5,6,6,7,7,8,8,9,9,10,10,11,11,12,12,13,13,14,14,16,16,17,17,18,18,19,19,20,20,21,21,22,22,24,24,26,26,28,28,29,29,30,30],"right_children":[2,4,6,8,10,12,14,16,18,20,22,24,26,28,30,-1,32,34,36,38,40,42,44,-1,46,-1,48,-1,50,52,54,-1,-1,-1,-1,-1,-1,-1,-1,-1,-1,-1,-1,-1,-1,-1,-1,-1,-1,-1,-1,-1,-1,-1,-1],"split_conditions":[2.5E-1,-8.25E0,6.99E0,7.7333336E1,8.1833336E1,6.01E0,5.99E0,-1.5E1,-1.4E1,7.6083336E1,-4.75E0,8.4E1,2.51E1,2.51E1,6.49E0,-3.0749327E-1,7.475E1,8.1333336E1,8.3333336E1,7.5666664E1,-4.75E0,8.48E1,8.48E1,-3.8830753E-2,2.36E1,1.23500876E-1,6.5E0,1.4418958E-1,7.7083336E1,3E1,-1.3333334E0,-2.1883348E-1,-1.4701435E-1,-1.9879995E-1,-1.3403103E-1,-1.1538135E-1,-4.9167052E-2,-1.3655923E-1,-8.112233E-2,-1.0258132E-1,-4.038171E-2,-3.4980748E-2,4.0883454E-3,2.4123153E-2,5.951185E-2,2.782917E-2,3.4719468E-3,4.547354E-3,5.4413646E-2,-3.3189803E-2,3.0993218E-2,1.0344409E-1,-9.441503E-3,2.5632223E-2,1.477094E-1],"split_indices":[11,11,1,8,8,1,2,11,11,8,11,6,0,0,2,0,8,8,8,6,11,8,8,0,0,0,2,0,8,0,13,0,0,0,0,0,0,0,0,0,0,0,0,0,0,0,0,0,0,0,0,0,0,0,0],"split_type":[0,0,0,0,0,0,0,0,0,0,0,0,0,0,0,0,0,0,0,0,0,0,0,0,0,0,0,0,0,0,0,0,0,0,0,0,0,0,0,0,0,0,0,0,0,0,0,0,0,0,0,0,0,0,0],"sum_hessian":[1.023E3,4.82E2,5.41E2,1.66E2,3.16E2,3.15E2,2.26E2,4.1E1,1.25E2,1.83E2,1.33E2,4.6E1,2.69E2,3.4E1,1.92E2,1.3E1,2.8E1,4.2E1,8.3E1,3.7E1,1.46E2,7.2E1,6.1E1,4.4E1,2E0,8E0,2.61E2,2E0,3.2E1,3.8E1,1.54E2,1.4E1,1.4E1,2.1E1,2.1E1,5.9E1,